{"version":"v2_20260711","created_at":"2026-07-11T16:45:15.973005","algorithm":"XGBClassifier","objective":"binary:logistic","base_score":0.39910328,"n_trees":450,"n_features":31,"feature_names":["age_years","monthly_income","income_stability","salary_consistency","spending_ratio","savings_ratio","credit_income_ratio","goods_price_ratio","cash_flow_stability","ext_source_1","ext_source_2","ext_source_3","family_size","has_children","documents_provided","region_population_relative","region_rating","days_last_phone_change","enquiries_hour","enquiries_day","enquiries_week","enquiries_mon","enquiries_qrt","enquiries_year","occupation_type","income_type","organization_type","education_type","family_status","housing_type","contract_type"],"display_names":{"age_years":{"en":"Age","hi":"\u0906\u092f\u0941"},"monthly_income":{"en":"Monthly Income","hi":"\u092e\u093e\u0938\u093f\u0915 \u0906\u092f"},"income_stability":{"en":"Income Stability","hi":"\u0906\u092f \u0938\u094d\u0925\u093f\u0930\u0924\u093e"},"salary_consistency":{"en":"Salary Consistency","hi":"\u0935\u0947\u0924\u0928 \u0928\u093f\u092f\u092e\u093f\u0924\u0924\u093e"},"spending_ratio":{"en":"Spending Ratio","hi":"\u0916\u0930\u094d\u091a \u0905\u0928\u0941\u092a\u093e\u0924"},"savings_ratio":{"en":"Savings Ratio","hi":"\u092c\u091a\u0924 \u0905\u0928\u0941\u092a\u093e\u0924"},"credit_income_ratio":{"en":"Credit-to-Income Ratio","hi":"\u090b\u0923-\u0906\u092f \u0905\u0928\u0941\u092a\u093e\u0924"},"goods_price_ratio":{"en":"Goods Price Ratio","hi":"\u0935\u0938\u094d\u0924\u0941 \u092e\u0942\u0932\u094d\u092f \u0905\u0928\u0941\u092a\u093e\u0924"},"cash_flow_stability":{"en":"Cash Flow Stability","hi":"\u0928\u0915\u0926\u0940 \u092a\u094d\u0930\u0935\u093e\u0939 \u0938\u094d\u0925\u093f\u0930\u0924\u093e"},"ext_source_1":{"en":"External Score 1","hi":"\u092c\u093e\u0939\u0930\u0940 \u0938\u094d\u0915\u094b\u0930 1"},"ext_source_2":{"en":"External Score 2","hi":"\u092c\u093e\u0939\u0930\u0940 \u0938\u094d\u0915\u094b\u0930 2"},"ext_source_3":{"en":"External Score 3","hi":"\u092c\u093e\u0939\u0930\u0940 \u0938\u094d\u0915\u094b\u0930 3"},"family_size":{"en":"Family Size","hi":"\u092a\u0930\u093f\u0935\u093e\u0930 \u0915\u093e \u0906\u0915\u093e\u0930"},"has_children":{"en":"Has Children","hi":"\u092c\u091a\u094d\u091a\u0947 \u0939\u0948\u0902"},"documents_provided":{"en":"Documents Provided","hi":"\u092a\u094d\u0930\u0926\u093e\u0928 \u0915\u093f\u090f \u0917\u090f \u0926\u0938\u094d\u0924\u093e\u0935\u0947\u091c\u093c"},"region_population_relative":{"en":"Region Population","hi":"\u0915\u094d\u0937\u0947\u0924\u094d\u0930 \u091c\u0928\u0938\u0902\u0916\u094d\u092f\u093e"},"region_rating":{"en":"Region Rating","hi":"\u0915\u094d\u0937\u0947\u0924\u094d\u0930 \u0930\u0947\u091f\u093f\u0902\u0917"},"days_last_phone_change":{"en":"Phone Stability","hi":"\u092b\u093c\u094b\u0928 \u0938\u094d\u0925\u093f\u0930\u0924\u093e"},"enquiries_hour":{"en":"Credit Enquiries (hour)","hi":"\u0915\u094d\u0930\u0947\u0921\u093f\u091f \u092a\u0942\u091b\u0924\u093e\u091b (hour)"},"enquiries_day":{"en":"Credit Enquiries (day)","hi":"\u0915\u094d\u0930\u0947\u0921\u093f\u091f \u092a\u0942\u091b\u0924\u093e\u091b (day)"},"enquiries_week":{"en":"Credit Enquiries (week)","hi":"\u0915\u094d\u0930\u0947\u0921\u093f\u091f \u092a\u0942\u091b\u0924\u093e\u091b (week)"},"enquiries_mon":{"en":"Credit Enquiries (mon)","hi":"\u0915\u094d\u0930\u0947\u0921\u093f\u091f \u092a\u0942\u091b\u0924\u093e\u091b (mon)"},"enquiries_qrt":{"en":"Credit Enquiries (qrt)","hi":"\u0915\u094d\u0930\u0947\u0921\u093f\u091f \u092a\u0942\u091b\u0924\u093e\u091b (qrt)"},"enquiries_year":{"en":"Credit Enquiries (year)","hi":"\u0915\u094d\u0930\u0947\u0921\u093f\u091f \u092a\u0942\u091b\u0924\u093e\u091b (year)"},"occupation_type":{"en":"Occupation","hi":"\u0935\u094d\u092f\u0935\u0938\u093e\u092f"},"income_type":{"en":"Employment Type","hi":"\u0930\u094b\u091c\u0917\u093e\u0930 \u092a\u094d\u0930\u0915\u093e\u0930"},"organization_type":{"en":"Organization Type","hi":"\u0938\u0902\u0917\u0920\u0928 \u092a\u094d\u0930\u0915\u093e\u0930"},"education_type":{"en":"Education Level","hi":"\u0936\u093f\u0915\u094d\u0937\u093e \u0938\u094d\u0924\u0930"},"family_status":{"en":"Family Status","hi":"\u092a\u093e\u0930\u093f\u0935\u093e\u0930\u093f\u0915 \u0938\u094d\u0925\u093f\u0924\u093f"},"housing_type":{"en":"Housing Type","hi":"\u0906\u0935\u093e\u0938 \u092a\u094d\u0930\u0915\u093e\u0930"},"contract_type":{"en":"Contract Type","hi":"\u0905\u0928\u0941\u092c\u0902\u0927 \u092a\u094d\u0930\u0915\u093e\u0930"}},"trees":[{"id":0,"split_indices":[9,7,9,0,0,3,7,0,0,0,0,0,0,0,0],"split_conditions":[0.523847,0.86326146,0.6362958,54.3,40.1,0.37014875,0.8080129,0.04993893,-0.012667687,0.014855509,-0.031476717,-0.014557446,-0.04838789,-0.029909728,-0.076352045],"left_children":[1,3,5,7,9,11,13,-1,-1,-1,-1,-1,-1,-1,-1],"right_children":[2,4,6,8,10,12,14,-1,-1,-1,-1,-1,-1,-1,-1],"default_left":[1,0,0,0,0,0,0,0,0,0,0,0,0,0,0],"base_weights":[-0.010202982,0.12088876,-0.6398873,0.43380153,-0.10194058,-0.37177736,-0.803354,0.04993893,-0.012667687,0.014855509,-0.031476717,-0.014557446,-0.04838789,-0.029909728,-0.076352045],"split_type":[0,0,0,0,0,0,0,0,0,0,0,0,0,0,0]},{"id":1,"split_indices":[11,10,10,11,11,10,10,0,0,0,0,0,0,0,0],"split_conditions":[0.4758499,0.41228396,0.40060464,0.28078958,0.2636468,0.1258333,0.57847035,0.119384594,0.0655886,0.058334988,-0.014377951,0.056464497,-0.0134089785,-0.045734257,-0.0792165],"left_children":[1,3,5,7,9,11,13,-1,-1,-1,-1,-1,-1,-1,-1],"right_children":[2,4,6,8,10,12,14,-1,-1,-1,-1,-1,-1,-1,-1],"default_left":[1,0,0,0,0,0,0,0,0,0,0,0,0,0,0],"base_weights":[-0.007258385,0.37317133,-0.5589442,0.9337913,0.035259962,-0.0,-0.7623267,0.119384594,0.0655886,0.058334988,-0.014377951,0.056464497,-0.0134089785,-0.045734257,-0.0792165],"split_type":[0,0,0,0,0,0,0,0,0,0,0,0,0,0,0]},{"id":2,"split_indices":[10,10,10,26,26,9,9,0,0,0,0,0,0,0,0],"split_conditions":[0.488813,0.15922496,0.6483805,0.07482316,0.07600145,0.5399231,0.24809644,0.059895825,0.10436636,-0.0047621867,0.04254089,-0.005616747,-0.05744683,0.01705298,-0.058199473],"left_children":[1,3,5,7,9,11,13,-1,-1,-1,-1,-1,-1,-1,-1],"right_children":[2,4,6,8,10,12,14,-1,-1,-1,-1,-1,-1,-1,-1],"default_left":[0,0,1,0,0,1,0,0,0,0,0,0,0,0,0],"base_weights":[0.0018943448,0.46425658,-0.35926205,1.0334383,0.29729724,-0.16569197,-0.6184364,0.059895825,0.10436636,-0.0047621867,0.04254089,-0.005616747,-0.05744683,0.01705298,-0.058199473],"split_type":[0,0,0,0,0,0,0,0,0,0,0,0,0,0,0]},{"id":3,"split_indices":[11,10,10,11,11,11,9,0,0,0,0,0,0,0,0],"split_conditions":[0.43296167,0.3799448,0.49146342,0.2881296,0.2636468,0.5726825,0.5886339,0.10650825,0.059853997,0.05449433,-0.0068694893,0.01912713,-0.025206324,-0.05455579,-0.09028646],"left_children":[1,3,5,7,9,11,13,-1,-1,-1,-1,-1,-1,-1,-1],"right_children":[2,4,6,8,10,12,14,-1,-1,-1,-1,-1,-1,-1,-1],"default_left":[1,0,1,0,0,0,1,0,0,0,0,0,0,0,0],"base_weights":[-0.002093214,0.37593088,-0.45561936,0.86527044,0.11045753,-0.07937575,-0.6943978,0.10650825,0.059853997,0.05449433,-0.0068694893,0.01912713,-0.025206324,-0.05455579,-0.09028646],"split_type":[0,0,0,0,0,0,0,0,0,0,0,0,0,0,0]},{"id":4,"split_indices":[11,10,10,11,11,24,24,0,0,0,0,0,0,0,0],"split_conditions":[0.46865967,0.5978753,0.40060464,0.2692858,0.31547216,0.07517773,0.095033474,0.083601065,0.032772258,0.024876181,-0.034635022,-0.030144185,0.022241678,-0.06828109,-0.03539278],"left_children":[1,3,5,7,9,11,13,-1,-1,-1,-1,-1,-1,-1,-1],"right_children":[2,4,6,8,10,12,14,-1,-1,-1,-1,-1,-1,-1,-1],"default_left":[1,0,1,0,0,0,0,0,0,0,0,0,0,0,0],"base_weights":[-0.0062227645,0.31400618,-0.4699145,0.5393497,-0.17574912,-0.05536533,-0.62819576,0.083601065,0.032772258,0.024876181,-0.034635022,-0.030144185,0.022241678,-0.06828109,-0.03539278],"split_type":[0,0,0,0,0,0,0,0,0,0,0,0,0,0,0]},{"id":5,"split_indices":[10,10,9,0,7,9,10,0,0,0,0,0,0,0,0],"split_conditions":[0.51613456,0.20468087,0.27710932,49.5,0.86326146,0.13717948,0.688098,0.073806696,0.02560027,0.03701694,-0.0005058898,0.07766452,0.02048233,-0.022373201,-0.05852323],"left_children":[1,3,5,7,9,11,13,-1,-1,-1,-1,-1,-1,-1,-1],"right_children":[2,4,6,8,10,12,14,-1,-1,-1,-1,-1,-1,-1,-1],"default_left":[1,0,0,0,0,0,0,0,0,0,0,0,0,0,0],"base_weights":[-0.00024574762,0.3237009,-0.3105262,0.69664836,0.17452055,0.37474403,-0.37141377,0.073806696,0.02560027,0.03701694,-0.0005058898,0.07766452,0.02048233,-0.022373201,-0.05852323],"split_type":[0,0,0,0,0,0,0,0,0,0,0,0,0,0,0]},{"id":6,"split_indices":[11,10,10,9,11,24,24,0,0,0,0,0,0,0,0],"split_conditions":[0.5064842,0.3799448,0.3105271,0.38806075,0.31547216,0.078216806,0.095033474,0.06449604,0.01717254,0.038926046,-0.011587737,-0.021981495,0.02689972,-0.06354145,-0.03487181],"left_children":[1,3,5,7,9,11,13,-1,-1,-1,-1,-1,-1,-1,-1],"right_children":[2,4,6,8,10,12,14,-1,-1,-1,-1,-1,-1,-1,-1],"default_left":[1,0,0,1,0,0,0,0,0,0,0,0,0,0,0],"base_weights":[-0.006405052,0.25505555,-0.47317493,0.64577323,0.047680978,0.014046019,-0.5915493,0.06449604,0.01717254,0.038926046,-0.011587737,-0.021981495,0.02689972,-0.06354145,-0.03487181],"split_type":[0,0,0,0,0,0,0,0,0,0,0,0,0,0,0]},{"id":7,"split_indices":[11,10,10,11,11,24,7,0,0,0,0,0,0,0,0],"split_conditions":[0.43296167,0.55651665,0.49909985,0.22888342,0.23791608,0.08289166,0.8833922,0.07691679,0.033838708,0.04245218,-0.01660293,-0.027043829,0.015070632,-0.032537535,-0.061603125],"left_children":[1,3,5,7,9,11,13,-1,-1,-1,-1,-1,-1,-1,-1],"right_children":[2,4,6,8,10,12,14,-1,-1,-1,-1,-1,-1,-1,-1],"default_left":[1,0,1,0,0,0,0,0,0,0,0,0,0,0,0],"base_weights":[0.0005513571,0.28982797,-0.36259058,0.5023632,-0.03546149,-0.07792572,-0.56281805,0.07691679,0.033838708,0.04245218,-0.01660293,-0.027043829,0.015070632,-0.032537535,-0.061603125],"split_type":[0,0,0,0,0,0,0,0,0,0,0,0,0,0,0]},{"id":8,"split_indices":[11,11,24,27,24,7,8,0,0,0,0,0,0,0,0],"split_conditions":[0.5118918,0.21396685,0.091633074,0.08868837,0.091633074,0.87321055,0.6667703,0.033058804,0.07080723,-0.007877579,0.029619118,-0.03305339,-0.061829675,-0.0066634174,-0.043020308],"left_children":[1,3,5,7,9,11,13,-1,-1,-1,-1,-1,-1,-1,-1],"right_children":[2,4,6,8,10,12,14,-1,-1,-1,-1,-1,-1,-1,-1],"default_left":[1,0,0,0,0,0,0,0,0,0,0,0,0,0,0],"base_weights":[-0.0031364206,0.21616071,-0.41440508,0.69334227,0.11403487,-0.5726927,-0.19951755,0.033058804,0.07080723,-0.007877579,0.029619118,-0.03305339,-0.061829675,-0.0066634174,-0.043020308],"split_type":[0,0,0,0,0,0,0,0,0,0,0,0,0,0,0]},{"id":9,"split_indices":[10,7,10,26,10,26,10,0,0,0,0,0,0,0,0],"split_conditions":[0.334018,0.83472455,0.6369364,0.07482316,0.105316974,0.0899002,0.70596564,0.040184714,0.07314447,0.058121853,0.014385057,-0.01793317,0.013643796,-0.027404329,-0.056008235],"left_children":[1,3,5,7,9,11,13,-1,-1,-1,-1,-1,-1,-1,-1],"right_children":[2,4,6,8,10,12,14,-1,-1,-1,-1,-1,-1,-1,-1],"default_left":[0,0,1,0,0,0,0,0,0,0,0,0,0,0,0],"base_weights":[-0.0062050875,0.42016244,-0.16327326,0.7259738,0.28544068,-0.016466757,-0.43881118,0.040184714,0.07314447,0.058121853,0.014385057,-0.01793317,0.013643796,-0.027404329,-0.056008235],"split_type":[0,0,0,0,0,0,0,0,0,0,0,0,0,0,0]},{"id":10,"split_indices":[10,9,9,26,7,2,7,0,0,0,0,0,0,0,0],"split_conditions":[0.5505775,0.38806075,0.27710932,0.05757932,0.8573976,0.2316643,0.8632608,-0.008992863,0.035536513,0.0089964755,-0.027969541,0.054632355,0.0069760075,-0.0088035995,-0.04044569],"left_children":[1,3,5,7,9,11,13,-1,-1,-1,-1,-1,-1,-1,-1],"right_children":[2,4,6,8,10,12,14,-1,-1,-1,-1,-1,-1,-1,-1],"default_left":[0,1,0,0,0,0,0,0,0,0,0,0,0,0,0],"base_weights":[-0.002907587,0.21156864,-0.27225015,0.30997673,-0.16967675,0.3480919,-0.32708675,-0.008992863,0.035536513,0.0089964755,-0.027969541,0.054632355,0.0069760075,-0.0088035995,-0.04044569],"split_type":[0,0,0,0,0,0,0,0,0,0,0,0,0,0,0]},{"id":11,"split_indices":[10,7,27,0,10,3,0,0,0,0,0,0,0,0,0],"split_conditions":[0.35512564,0.86326146,0.08264028,51.5,0.1258333,0.41284528,45.7,0.05671469,0.0166386,0.043308232,0.0023952753,-0.026593806,-0.056995507,0.011062763,-0.02328574],"left_children":[1,3,5,7,9,11,13,-1,-1,-1,-1,-1,-1,-1,-1],"right_children":[2,4,6,8,10,12,14,-1,-1,-1,-1,-1,-1,-1,-1],"default_left":[0,0,0,0,0,0,0,0,0,0,0,0,0,0,0],"base_weights":[-0.0010153118,0.33323175,-0.1383221,0.5404324,0.14884615,-0.45686498,-0.04025966,0.05671469,0.0166386,0.043308232,0.0023952753,-0.026593806,-0.056995507,0.011062763,-0.02328574],"split_type":[0,0,0,0,0,0,0,0,0,0,0,0,0,0,0]},{"id":12,"split_indices":[11,11,10,11,10,24,14,0,0,0,0,0,0,0,0],"split_conditions":[0.5585066,0.31547216,0.57847035,0.14916746,0.28226438,0.06686006,1.0,0.06754686,0.033097323,0.035792615,-0.0071017873,-0.03659714,-0.008158307,-0.088809125,-0.049108326],"left_children":[1,3,5,7,9,11,13,-1,-1,-1,-1,-1,-1,-1,-1],"right_children":[2,4,6,8,10,12,14,-1,-1,-1,-1,-1,-1,-1,-1],"default_left":[1,0,1,0,0,0,0,0,0,0,0,0,0,0,0],"base_weights":[0.0035363655,0.17020239,-0.41051853,0.49559507,0.030653954,-0.25855327,-0.5957203,0.06754686,0.033097323,0.035792615,-0.0071017873,-0.03659714,-0.008158307,-0.088809125,-0.049108326],"split_type":[0,0,0,0,0,0,0,0,0,0,0,0,0,0,0]},{"id":13,"split_indices":[11,9,9,11,11,2,11,0,0,0,0,0,0,0,0],"split_conditions":[0.5726825,0.5002835,0.2514373,0.344155,0.18088798,0.35019436,0.67065173,0.042993125,0.009997137,0.024340454,-0.03426953,0.039831933,-0.014390376,-0.027712932,-0.04927305],"left_children":[1,3,5,7,9,11,13,-1,-1,-1,-1,-1,-1,-1,-1],"right_children":[2,4,6,8,10,12,14,-1,-1,-1,-1,-1,-1,-1,-1],"default_left":[1,1,0,0,0,0,0,0,0,0,0,0,0,0,0],"base_weights":[-0.002394325,0.14845277,-0.4154377,0.23941003,-0.31523797,0.22123446,-0.45035738,0.042993125,0.009997137,0.024340454,-0.03426953,0.039831933,-0.014390376,-0.027712932,-0.04927305],"split_type":[0,0,0,0,0,0,0,0,0,0,0,0,0,0,0]},{"id":14,"split_indices":[11,10,10,10,11,10,3,0,0,0,0,0,0,0,0],"split_conditions":[0.5064842,0.61655974,0.24445182,0.15287545,0.1276988,0.055866856,0.29213724,0.057832588,0.01899867,0.050533894,-0.020046374,0.04833019,-0.0,-0.0,-0.037348617],"left_children":[1,3,5,7,9,11,13,-1,-1,-1,-1,-1,-1,-1,-1],"right_children":[2,4,6,8,10,12,14,-1,-1,-1,-1,-1,-1,-1,-1],"default_left":[1,0,0,0,0,0,0,0,0,0,0,0,0,0,0],"base_weights":[-0.0027426772,0.16030508,-0.30935788,0.28422937,-0.17334157,0.09691896,-0.3743918,0.057832588,0.01899867,0.050533894,-0.020046374,0.04833019,-0.0,-0.0,-0.037348617],"split_type":[0,0,0,0,0,0,0,0,0,0,0,0,0,0,0]},{"id":15,"split_indices":[10,7,24,0,26,7,8,0,0,0,0,0,0,0,0],"split_conditions":[0.5468141,0.87320876,0.091633074,53.4,0.07482316,0.83472455,0.6165799,0.03836027,0.004757787,-0.021299051,0.012074206,-0.0042753886,-0.035884555,0.012404884,-0.015561885],"left_children":[1,3,5,7,9,11,13,-1,-1,-1,-1,-1,-1,-1,-1],"right_children":[2,4,6,8,10,12,14,-1,-1,-1,-1,-1,-1,-1,-1],"default_left":[0,0,0,0,0,0,0,0,0,0,0,0,0,0,0],"base_weights":[0.005781183,0.1727962,-0.20308256,0.3608725,0.011698229,-0.3370043,-0.018356593,0.03836027,0.004757787,-0.021299051,0.012074206,-0.0042753886,-0.035884555,0.012404884,-0.015561885],"split_type":[0,0,0,0,0,0,0,0,0,0,0,0,0,0,0]},{"id":16,"split_indices":[11,11,24,30,10,10,11,0,0,0,0,0,0,0,0],"split_conditions":[0.34741822,0.13510601,0.078216806,0.082775906,0.20468087,0.61655974,0.5620605,-0.0,0.06085778,0.054528445,0.018843072,-0.014567003,-0.043127056,0.016020749,-0.016798528],"left_children":[1,3,5,7,9,11,13,-1,-1,-1,-1,-1,-1,-1,-1],"right_children":[2,4,6,8,10,12,14,-1,-1,-1,-1,-1,-1,-1,-1],"default_left":[0,0,0,0,1,0,1,0,0,0,0,0,0,0,0],"base_weights":[-0.0007055597,0.36272213,-0.1225617,0.6472748,0.2819576,-0.2773771,0.054705802,-0.0,0.06085778,0.054528445,0.018843072,-0.014567003,-0.043127056,0.016020749,-0.016798528],"split_type":[0,0,0,0,0,0,0,0,0,0,0,0,0,0,0]},{"id":17,"split_indices":[11,9,9,0,11,11,8,0,0,0,0,0,0,0,0],"split_conditions":[0.41359675,0.42586178,0.5002835,52.3,0.23791608,0.6738301,0.611,0.029919999,-0.0033352042,0.007819547,-0.02789109,-0.0024223675,-0.035116017,-0.033223666,-0.063238636],"left_children":[1,3,5,7,9,11,13,-1,-1,-1,-1,-1,-1,-1,-1],"right_children":[2,4,6,8,10,12,14,-1,-1,-1,-1,-1,-1,-1,-1],"default_left":[1,1,1,0,0,0,0,0,0,0,0,0,0,0,0],"base_weights":[-0.008513743,0.1674106,-0.21998557,0.2622953,-0.21143857,-0.13946253,-0.5390827,0.029919999,-0.0033352042,0.007819547,-0.02789109,-0.0024223675,-0.035116017,-0.033223666,-0.063238636],"split_type":[0,0,0,0,0,0,0,0,0,0,0,0,0,0,0]},{"id":18,"split_indices":[7,26,24,5,8,27,15,0,0,0,0,0,0,0,0],"split_conditions":[0.87320876,0.0899002,0.094826765,0.7458,0.6437135,0.08264028,0.032561,0.027504552,-0.002661773,0.038328957,0.0071853395,-0.04178722,-0.017149396,0.0054831617,-0.027677052],"left_children":[1,3,5,7,9,11,13,-1,-1,-1,-1,-1,-1,-1,-1],"right_children":[2,4,6,8,10,12,14,-1,-1,-1,-1,-1,-1,-1,-1],"default_left":[0,0,0,0,0,0,0,0,0,0,0,0,0,0,0],"base_weights":[-0.0040284363,0.18528584,-0.14842346,0.036193766,0.32029587,-0.28636193,0.021751365,0.027504552,-0.002661773,0.038328957,0.0071853395,-0.04178722,-0.017149396,0.0054831617,-0.027677052],"split_type":[0,0,0,0,0,0,0,0,0,0,0,0,0,0,0]},{"id":19,"split_indices":[11,10,7,11,11,11,10,0,0,0,0,0,0,0,0],"split_conditions":[0.47045612,0.71598995,0.87321055,0.24719094,0.43473324,0.6212263,0.1258333,0.038783073,0.008549966,-0.022946818,-0.05996227,0.0093604475,-0.02117527,0.011227143,-0.03482772],"left_children":[1,3,5,7,9,11,13,-1,-1,-1,-1,-1,-1,-1,-1],"right_children":[2,4,6,8,10,12,14,-1,-1,-1,-1,-1,-1,-1,-1],"default_left":[1,1,0,0,0,0,1,0,0,0,0,0,0,0,0],"base_weights":[-0.0042533367,0.13858308,-0.23519495,0.18060014,-0.45679623,-0.067963704,-0.3673719,0.038783073,0.008549966,-0.022946818,-0.05996227,0.0093604475,-0.02117527,0.011227143,-0.03482772],"split_type":[0,0,0,0,0,0,0,0,0,0,0,0,0,0,0]},{"id":20,"split_indices":[10,10,9,2,9,27,9,0,0,0,0,0,0,0,0],"split_conditions":[0.2542455,0.06679726,0.57290053,0.52548784,0.4203965,0.08868837,0.69661224,0.05774972,0.009726502,0.026636465,-0.009152795,-0.022880897,0.0053881267,-0.022912491,-0.050547827],"left_children":[1,3,5,7,9,11,13,-1,-1,-1,-1,-1,-1,-1,-1],"right_children":[2,4,6,8,10,12,14,-1,-1,-1,-1,-1,-1,-1,-1],"default_left":[0,0,1,0,1,0,0,0,0,0,0,0,0,0,0],"base_weights":[5.8221805e-05,0.3224563,-0.07334853,0.5908914,0.24091494,-0.013767149,-0.42233202,0.05774972,0.009726502,0.026636465,-0.009152795,-0.022880897,0.0053881267,-0.022912491,-0.050547827],"split_type":[0,0,0,0,0,0,0,0,0,0,0,0,0,0,0]},{"id":21,"split_indices":[9,0,9,8,7,8,7,0,0,0,0,0,0,0,0],"split_conditions":[0.4522409,44.7,0.73853725,0.6587743,0.7594211,0.58834094,0.89381164,0.02907202,-0.0017367975,0.027782373,-0.014742191,-0.0018867697,-0.029975737,-0.030563254,-0.056511465],"left_children":[1,3,5,7,9,11,13,-1,-1,-1,-1,-1,-1,-1,-1],"right_children":[2,4,6,8,10,12,14,-1,-1,-1,-1,-1,-1,-1,-1],"default_left":[1,0,0,0,0,0,0,0,0,0,0,0,0,0,0],"base_weights":[0.00057685503,0.073620744,-0.28885403,0.19473472,-0.11395066,-0.21721779,-0.5146169,0.02907202,-0.0017367975,0.027782373,-0.014742191,-0.0018867697,-0.029975737,-0.030563254,-0.056511465],"split_type":[0,0,0,0,0,0,0,0,0,0,0,0,0,0,0]},{"id":22,"split_indices":[11,11,10,5,27,26,11,0,0,0,0,0,0,0,0],"split_conditions":[0.41359675,0.14916746,0.26225838,0.937,0.08264028,0.07482316,0.6127042,0.048312183,-0.011329103,-0.009195119,0.021392934,-0.0035816994,0.027842829,-0.00956038,-0.03277207],"left_children":[1,3,5,7,9,11,13,-1,-1,-1,-1,-1,-1,-1,-1],"right_children":[2,4,6,8,10,12,14,-1,-1,-1,-1,-1,-1,-1,-1],"default_left":[0,0,1,0,0,0,1,0,0,0,0,0,0,0,0],"base_weights":[-0.0034320264,0.23505737,-0.12075569,0.51482975,0.16459781,0.1963769,-0.19472213,0.048312183,-0.011329103,-0.009195119,0.021392934,-0.0035816994,0.027842829,-0.00956038,-0.03277207],"split_type":[0,0,0,0,0,0,0,0,0,0,0,0,0,0,0]},{"id":23,"split_indices":[11,7,10,10,10,28,4,0,0,0,0,0,0,0,0],"split_conditions":[0.60927564,0.8632608,0.6469733,0.18814592,0.6554614,0.08065853,0.16558,0.047673233,0.016617209,0.0016735942,-0.029593652,-0.027533697,-0.0048772898,-0.056218233,-0.030040573],"left_children":[1,3,5,7,9,11,13,-1,-1,-1,-1,-1,-1,-1,-1],"right_children":[2,4,6,8,10,12,14,-1,-1,-1,-1,-1,-1,-1,-1],"default_left":[1,0,1,0,1,0,0,0,0,0,0,0,0,0,0],"base_weights":[-0.0075779273,0.07247068,-0.305506,0.24541552,-0.05242662,-0.236512,-0.48634192,0.047673233,0.016617209,0.0016735942,-0.029593652,-0.027533697,-0.0048772898,-0.056218233,-0.030040573],"split_type":[0,0,0,0,0,0,0,0,0,0,0,0,0,0,0]},{"id":24,"split_indices":[11,7,9,9,26,0,9,0,0,0,0,0,0,0,0],"split_conditions":[0.2851799,0.89381164,0.4522409,0.21335569,0.08699532,46.2,0.74991876,0.07050884,0.032441422,-0.0040067527,0.024917515,0.0094050625,-0.016963024,-0.026028994,-0.04998385],"left_children":[1,3,5,7,9,11,13,-1,-1,-1,-1,-1,-1,-1,-1],"right_children":[2,4,6,8,10,12,14,-1,-1,-1,-1,-1,-1,-1,-1],"default_left":[0,0,1,0,0,0,0,0,0,0,0,0,0,0,0],"base_weights":[-0.008660492,0.29188928,-0.07668926,0.41793546,0.1443993,-0.005840232,-0.35534826,0.07050884,0.032441422,-0.0040067527,0.024917515,0.0094050625,-0.016963024,-0.026028994,-0.04998385],"split_type":[0,0,0,0,0,0,0,0,0,0,0,0,0,0,0]},{"id":25,"split_indices":[9,26,9,7,8,0,29,0,0,0,0,0,0,0,0],"split_conditions":[0.41225156,0.08322846,0.7246007,0.8833922,0.66538703,44.6,0.12021543,0.005015424,-0.020026565,0.023834739,-0.003042979,-0.025246989,0.0038421527,-0.04206174,0.045339797],"left_children":[1,3,5,7,9,11,13,-1,-1,-1,-1,-1,-1,-1,-1],"right_children":[2,4,6,8,10,12,14,-1,-1,-1,-1,-1,-1,-1,-1],"default_left":[1,0,0,0,0,0,0,0,0,0,0,0,0,0,0],"base_weights":[-0.00088702596,0.0663486,-0.23507638,-0.09317403,0.181844,-0.16445068,-0.4648265,0.005015424,-0.020026565,0.023834739,-0.003042979,-0.025246989,0.0038421527,-0.04206174,0.045339797],"split_type":[0,0,0,0,0,0,0,0,0,0,0,0,0,0,0]},{"id":26,"split_indices":[11,11,24,5,14,11,3,0,0,0,0,0,0,0,0],"split_conditions":[0.33445412,0.12064103,0.10429124,0.90533334,1.0,0.7062051,0.4369375,0.054804176,0.019982012,-0.012598043,0.01902008,-0.01089881,-0.03986013,0.017116887,-0.010747068],"left_children":[1,3,5,7,9,11,13,-1,-1,-1,-1,-1,-1,-1,-1],"right_children":[2,4,6,8,10,12,14,-1,-1,-1,-1,-1,-1,-1,-1],"default_left":[0,0,0,0,0,1,0,0,0,0,0,0,0,0,0],"base_weights":[-0.0028335352,0.25856215,-0.08523496,0.55809027,0.1855853,-0.16732612,0.08423585,0.054804176,0.019982012,-0.012598043,0.01902008,-0.01089881,-0.03986013,0.017116887,-0.010747068],"split_type":[0,0,0,0,0,0,0,0,0,0,0,0,0,0,0]},{"id":27,"split_indices":[10,11,11,7,9,9,7,0,0,0,0,0,0,0,0],"split_conditions":[0.6651384,0.41534716,0.53527623,0.9099181,0.24809644,0.60924596,0.75941676,0.023853721,0.001511412,0.03560837,-0.010644311,-0.0015981605,-0.0416488,0.0019533534,-0.040416505],"left_children":[1,3,5,7,9,11,13,-1,-1,-1,-1,-1,-1,-1,-1],"right_children":[2,4,6,8,10,12,14,-1,-1,-1,-1,-1,-1,-1,-1],"default_left":[1,1,0,0,0,1,0,0,0,0,0,0,0,0,0],"base_weights":[0.0021556618,0.062341657,-0.27806765,0.17208812,-0.08216763,-0.09014854,-0.42468277,0.023853721,0.001511412,0.03560837,-0.010644311,-0.0015981605,-0.0416488,0.0019533534,-0.040416505],"split_type":[0,0,0,0,0,0,0,0,0,0,0,0,0,0,0]},{"id":28,"split_indices":[11,16,10,26,11,26,27,0,0,0,0,0,0,0,0],"split_conditions":[0.31859553,2.0,0.15287545,0.0643055,0.11247435,0.08612254,0.08868837,-0.070464,-0.011233925,0.04791482,0.01912265,0.014611822,0.03946638,-0.026043592,-0.002678813],"left_children":[1,3,5,7,9,11,13,-1,-1,-1,-1,-1,-1,-1,-1],"right_children":[2,4,6,8,10,12,14,-1,-1,-1,-1,-1,-1,-1,-1],"default_left":[0,0,0,0,0,0,0,0,0,0,0,0,0,0,0],"base_weights":[0.008659765,0.23660319,-0.055425227,-0.22844923,0.2780946,0.32638162,-0.094046764,-0.070464,-0.011233925,0.04791482,0.01912265,0.014611822,0.03946638,-0.026043592,-0.002678813],"split_type":[0,0,0,0,0,0,0,0,0,0,0,0,0,0,0]},{"id":29,"split_indices":[11,7,2,9,27,4,11,0,0,0,0,0,0,0,0],"split_conditions":[0.5726825,0.8632625,0.514272,0.27088487,0.08264028,0.19673334,0.6561584,0.024992451,0.0030754588,-0.023183905,0.002572033,-0.023291036,-0.00031107327,-0.02137561,-0.056543585],"left_children":[1,3,5,7,9,11,13,-1,-1,-1,-1,-1,-1,-1,-1],"right_children":[2,4,6,8,10,12,14,-1,-1,-1,-1,-1,-1,-1,-1],"default_left":[1,0,0,1,0,0,0,0,0,0,0,0,0,0,0],"base_weights":[-0.00072517374,0.06967377,-0.21095727,0.2110707,-0.037940823,-0.15892099,-0.48045066,0.024992451,0.0030754588,-0.023183905,0.002572033,-0.023291036,-0.00031107327,-0.02137561,-0.056543585],"split_type":[0,0,0,0,0,0,0,0,0,0,0,0,0,0,0]},{"id":30,"split_indices":[10,9,8,9,26,9,26,0,0,0,0,0,0,0,0],"split_conditions":[0.6866554,0.19434394,0.6681546,0.11722112,0.0760928,0.3773672,0.08612254,0.06628582,0.03488304,-0.011353397,0.00854941,0.0075585633,-0.027112685,-0.05819912,-0.030116944],"left_children":[1,3,5,7,9,11,13,-1,-1,-1,-1,-1,-1,-1,-1],"right_children":[2,4,6,8,10,12,14,-1,-1,-1,-1,-1,-1,-1,-1],"default_left":[1,0,0,0,0,0,0,0,0,0,0,0,0,0,0],"base_weights":[-0.0012815528,0.047461025,-0.3321755,0.5199086,0.016286204,-0.26377276,-0.50050443,0.06628582,0.03488304,-0.011353397,0.00854941,0.0075585633,-0.027112685,-0.05819912,-0.030116944],"split_type":[0,0,0,0,0,0,0,0,0,0,0,0,0,0,0]},{"id":31,"split_indices":[11,9,2,24,9,0,1,0,0,0,0,0,0,0,0],"split_conditions":[0.6479769,0.5313948,0.61819136,0.091633074,0.81264657,39.7,103500.0,-0.00082156144,0.017367035,-0.012460057,-0.05447313,0.00013892996,-0.02551195,-0.018945474,-0.06043708],"left_children":[1,3,5,7,9,11,13,-1,-1,-1,-1,-1,-1,-1,-1],"right_children":[2,4,6,8,10,12,14,-1,-1,-1,-1,-1,-1,-1,-1],"default_left":[1,1,0,0,0,0,0,0,0,0,0,0,0,0,0],"base_weights":[0.0063383416,0.05354788,-0.23975232,0.095707156,-0.1957072,-0.19686027,-0.5974388,-0.00082156144,0.017367035,-0.012460057,-0.05447313,0.00013892996,-0.02551195,-0.018945474,-0.06043708],"split_type":[0,0,0,0,0,0,0,0,0,0,0,0,0,0,0]},{"id":32,"split_indices":[7,8,11,7,27,4,3,0,0,0,0,0,0,0,0],"split_conditions":[0.8256301,0.6667703,0.17456427,0.7163324,0.08504409,0.1978,0.31711614,0.047323182,0.018241083,-0.030989321,0.0009521151,0.017182311,0.044419345,0.0068436344,-0.012465311],"left_children":[1,3,5,7,9,11,13,-1,-1,-1,-1,-1,-1,-1,-1],"right_children":[2,4,6,8,10,12,14,-1,-1,-1,-1,-1,-1,-1,-1],"default_left":[0,0,0,0,0,0,0,0,0,0,0,0,0,0,0],"base_weights":[-0.0044715093,0.17437361,-0.064546816,0.25915357,-0.062319808,0.29183763,-0.096348576,0.047323182,0.018241083,-0.030989321,0.0009521151,0.017182311,0.044419345,0.0068436344,-0.012465311],"split_type":[0,0,0,0,0,0,0,0,0,0,0,0,0,0,0]},{"id":33,"split_indices":[9,11,3,16,27,7,6,0,0,0,0,0,0,0,0],"split_conditions":[0.6522717,0.31859553,0.4843725,2.0,0.08868837,0.75941867,5.792,-0.009528208,0.023430223,-0.020279039,0.0030860645,0.015883029,-0.02814245,-0.065444626,-0.020748997],"left_children":[1,3,5,7,9,11,13,-1,-1,-1,-1,-1,-1,-1,-1],"right_children":[2,4,6,8,10,12,14,-1,-1,-1,-1,-1,-1,-1,-1],"default_left":[1,0,0,0,0,0,0,0,0,0,0,0,0,0,0],"base_weights":[0.004111769,0.036092665,-0.35407624,0.23504037,-0.021855567,-0.2724234,-0.6210849,-0.009528208,0.023430223,-0.020279039,0.0030860645,0.015883029,-0.02814245,-0.065444626,-0.020748997],"split_type":[0,0,0,0,0,0,0,0,0,0,0,0,0,0,0]},{"id":34,"split_indices":[10,10,30,3,8,1,10,0,0,0,0,0,0,0,0],"split_conditions":[0.61655974,0.06679726,0.082775906,0.56311953,0.6437135,126000.0,0.70596564,0.046159737,0.0037004375,0.010240271,-0.006660387,-0.025567317,-0.06165936,-0.0041612065,-0.024485454],"left_children":[1,3,5,7,9,11,13,-1,-1,-1,-1,-1,-1,-1,-1],"right_children":[2,4,6,8,10,12,14,-1,-1,-1,-1,-1,-1,-1,-1],"default_left":[1,0,0,0,0,0,0,0,0,0,0,0,0,0,0],"base_weights":[0.00898169,0.075996794,-0.15754388,0.462214,0.05105036,-0.5583675,-0.120687515,0.046159737,0.0037004375,0.010240271,-0.006660387,-0.025567317,-0.06165936,-0.0041612065,-0.024485454],"split_type":[0,0,0,0,0,0,0,0,0,0,0,0,0,0,0]},{"id":35,"split_indices":[10,10,11,2,26,4,26,0,0,0,0,0,0,0,0],"split_conditions":[0.2586948,0.055866856,0.35729328,0.52548784,0.08754746,0.15294285,0.0899002,0.04636125,-0.0,-0.0,0.023010418,0.0010492569,0.018960217,-0.01927165,-0.0012382003],"left_children":[1,3,5,7,9,11,13,-1,-1,-1,-1,-1,-1,-1,-1],"right_children":[2,4,6,8,10,12,14,-1,-1,-1,-1,-1,-1,-1,-1],"default_left":[0,0,0,0,0,0,0,0,0,0,0,0,0,0,0],"base_weights":[-0.005439702,0.20170464,-0.054225244,0.46260276,0.14027359,0.11317832,-0.113230646,0.04636125,-0.0,-0.0,0.023010418,0.0010492569,0.018960217,-0.01927165,-0.0012382003],"split_type":[0,0,0,0,0,0,0,0,0,0,0,0,0,0,0]},{"id":36,"split_indices":[9,2,7,22,9,3,11,0,0,0,0,0,0,0,0],"split_conditions":[0.25473744,0.017067121,0.8833922,1.0,0.13717948,0.31975296,0.31547216,0.11046102,-0.008816322,0.04587307,0.018507268,0.022154815,0.0011611384,0.0040511005,-0.017160837],"left_children":[1,3,5,7,9,11,13,-1,-1,-1,-1,-1,-1,-1,-1],"right_children":[2,4,6,8,10,12,14,-1,-1,-1,-1,-1,-1,-1,-1],"default_left":[0,0,0,0,0,0,0,0,0,0,0,0,0,0,0],"base_weights":[-0.009128151,0.32069075,-0.043522254,1.0519814,0.2963244,0.07132771,-0.14539662,0.11046102,-0.008816322,0.04587307,0.018507268,0.022154815,0.0011611384,0.0040511005,-0.017160837],"split_type":[0,0,0,0,0,0,0,0,0,0,0,0,0,0,0]},{"id":37,"split_indices":[7,17,26,27,8,4,8,0,0,0,0,0,0,0,0],"split_conditions":[0.7594211,1353.0,0.07482316,0.05427587,0.59345263,0.21132,0.6213196,-0.010532939,0.035619117,0.025768124,-0.015503638,-0.019747652,0.00042335782,0.010787377,-0.0055095227],"left_children":[1,3,5,7,9,11,13,-1,-1,-1,-1,-1,-1,-1,-1],"right_children":[2,4,6,8,10,12,14,-1,-1,-1,-1,-1,-1,-1,-1],"default_left":[0,0,0,0,0,0,0,0,0,0,0,0,0,0,0],"base_weights":[0.008937266,0.26027825,-0.025276974,0.3463103,-0.0,-0.14270496,0.032867882,-0.010532939,0.035619117,0.025768124,-0.015503638,-0.019747652,0.00042335782,0.010787377,-0.0055095227],"split_type":[0,0,0,0,0,0,0,0,0,0,0,0,0,0,0]},{"id":38,"split_indices":[10,24,27,10,3,14,10,0,0,0,0,0,0,0,0],"split_conditions":[0.488813,0.1023664,0.08264028,0.055866856,0.36541462,1.0,0.71957356,0.032130335,0.00047264955,0.027966352,0.00815561,-0.0539732,-0.019941008,0.00023181606,-0.027817113],"left_children":[1,3,5,7,9,11,13,-1,-1,-1,-1,-1,-1,-1,-1],"right_children":[2,4,6,8,10,12,14,-1,-1,-1,-1,-1,-1,-1,-1],"default_left":[0,0,0,0,0,0,1,0,0,0,0,0,0,0,0],"base_weights":[-0.0034900834,0.0950888,-0.089269474,0.032416377,0.20225212,-0.27024943,-0.032866642,0.032130335,0.00047264955,0.027966352,0.00815561,-0.0539732,-0.019941008,0.00023181606,-0.027817113],"split_type":[0,0,0,0,0,0,0,0,0,0,0,0,0,0,0]},{"id":39,"split_indices":[10,10,11,3,24,16,10,0,0,0,0,0,0,0,0],"split_conditions":[0.6056258,0.07653055,0.49566582,0.55506057,0.1023664,2.0,0.7365242,0.037368108,0.0014223256,-0.0024855265,0.012330117,-0.02262608,0.0052160867,-0.015858766,-0.044974063],"left_children":[1,3,5,7,9,11,13,-1,-1,-1,-1,-1,-1,-1,-1],"right_children":[2,4,6,8,10,12,14,-1,-1,-1,-1,-1,-1,-1,-1],"default_left":[1,0,0,0,0,0,0,0,0,0,0,0,0,0,0],"base_weights":[-0.0024036982,0.055546753,-0.13332836,0.36836877,0.031818748,0.0020829425,-0.23075175,0.037368108,0.0014223256,-0.0024855265,0.012330117,-0.02262608,0.0052160867,-0.015858766,-0.044974063],"split_type":[0,0,0,0,0,0,0,0,0,0,0,0,0,0,0]},{"id":40,"split_indices":[9,3,9,0,11,11,0,0,0,0,0,0,0,0,0],"split_conditions":[0.1764711,0.42278945,0.62527627,27.1,0.40487838,0.7032033,60.4,0.011493462,0.05761944,0.031771634,-0.0,0.0033881657,-0.020677468,-0.02798749,0.0043576765],"left_children":[1,3,5,7,9,11,13,-1,-1,-1,-1,-1,-1,-1,-1],"right_children":[2,4,6,8,10,12,14,-1,-1,-1,-1,-1,-1,-1,-1],"default_left":[0,0,1,0,1,1,0,0,0,0,0,0,0,0,0],"base_weights":[0.00437873,0.4222089,-0.015951259,0.5437565,0.25264728,0.011688973,-0.2696162,0.011493462,0.05761944,0.031771634,-0.0,0.0033881657,-0.020677468,-0.02798749,0.0043576765],"split_type":[0,0,0,0,0,0,0,0,0,0,0,0,0,0,0]},{"id":41,"split_indices":[9,14,7,7,9,8,9,0,0,0,0,0,0,0,0],"split_conditions":[0.24809644,1.0,0.8833922,0.9154156,0.10933586,0.6460257,0.64412636,-0.10853221,-8.839483e-05,0.054858837,0.022748947,0.010508949,-0.0072198715,-0.0072698467,-0.031814955],"left_children":[1,3,5,7,9,11,13,-1,-1,-1,-1,-1,-1,-1,-1],"right_children":[2,4,6,8,10,12,14,-1,-1,-1,-1,-1,-1,-1,-1],"default_left":[0,0,0,0,0,0,1,0,0,0,0,0,0,0,0],"base_weights":[-0.003868586,0.28086212,-0.03190253,-0.09783889,0.32241523,0.05740247,-0.11038534,-0.10853221,-8.839483e-05,0.054858837,0.022748947,0.010508949,-0.0072198715,-0.0072698467,-0.031814955],"split_type":[0,0,0,0,0,0,0,0,0,0,0,0,0,0,0]},{"id":42,"split_indices":[11,10,9,9,8,3,14,0,0,0,0,0,0,0,0],"split_conditions":[0.622922,0.18814592,0.24809644,0.29564255,0.6640453,0.45680752,2.0,0.026350394,0.0037692778,0.0055674696,-0.010131181,0.044832148,-0.008572212,-0.016741863,-0.07774861],"left_children":[1,3,5,7,9,11,13,-1,-1,-1,-1,-1,-1,-1,-1],"right_children":[2,4,6,8,10,12,14,-1,-1,-1,-1,-1,-1,-1,-1],"default_left":[1,0,0,1,0,0,0,0,0,0,0,0,0,0,0],"base_weights":[0.0027668907,0.044120524,-0.17719446,0.24899323,0.012163668,0.2828692,-0.2056007,0.026350394,0.0037692778,0.0055674696,-0.010131181,0.044832148,-0.008572212,-0.016741863,-0.07774861],"split_type":[0,0,0,0,0,0,0,0,0,0,0,0,0,0,0]},{"id":43,"split_indices":[11,30,8,1,26,0,24,0,0,0,0,0,0,0,0],"split_conditions":[0.6380435,0.082775906,0.763248,130500.0,0.0899002,42.5,0.106545866,-0.004436767,-0.034896523,-0.002688931,0.011391505,-0.00082886766,-0.020148752,-0.049030002,0.002215127],"left_children":[1,3,5,7,9,11,13,-1,-1,-1,-1,-1,-1,-1,-1],"right_children":[2,4,6,8,10,12,14,-1,-1,-1,-1,-1,-1,-1,-1],"default_left":[1,0,0,0,0,0,0,0,0,0,0,0,0,0,0],"base_weights":[-0.0038621693,0.030734578,-0.17674254,-0.22926563,0.054455824,-0.14046162,-0.49829164,-0.004436767,-0.034896523,-0.002688931,0.011391505,-0.00082886766,-0.020148752,-0.049030002,0.002215127],"split_type":[0,0,0,0,0,0,0,0,0,0,0,0,0,0,0]},{"id":44,"split_indices":[9,25,8,7,8,23,11,0,0,0,0,0,0,0,0],"split_conditions":[0.42324653,0.09546012,0.56666666,0.9099181,0.71816796,4.0,0.2636468,0.0015942235,-0.014660973,0.014774706,-0.007838835,-0.008257357,0.03408981,0.002582365,-0.028717138],"left_children":[1,3,5,7,9,11,13,-1,-1,-1,-1,-1,-1,-1,-1],"right_children":[2,4,6,8,10,12,14,-1,-1,-1,-1,-1,-1,-1,-1],"default_left":[1,0,0,0,0,0,0,0,0,0,0,0,0,0,0],"base_weights":[-0.0018187152,0.045903306,-0.18340151,-0.05216061,0.1199739,-0.012664233,-0.2594325,0.0015942235,-0.014660973,0.014774706,-0.007838835,-0.008257357,0.03408981,0.002582365,-0.028717138],"split_type":[0,0,0,0,0,0,0,0,0,0,0,0,0,0,0]},{"id":45,"split_indices":[11,11,7,6,10,10,16,0,0,0,0,0,0,0,0],"split_conditions":[0.34741822,0.1276988,0.748167,1.198,0.28589788,0.4045386,3.0,-0.0076317117,0.032347057,0.023416014,0.002792516,0.034696087,0.009524497,-0.00994867,0.008251439],"left_children":[1,3,5,7,9,11,13,-1,-1,-1,-1,-1,-1,-1,-1],"right_children":[2,4,6,8,10,12,14,-1,-1,-1,-1,-1,-1,-1,-1],"default_left":[0,0,0,0,0,0,0,0,0,0,0,0,0,0,0],"base_weights":[-0.0030382036,0.13389711,-0.05035077,0.32941365,0.08672755,0.23031293,-0.07452774,-0.0076317117,0.032347057,0.023416014,0.002792516,0.034696087,0.009524497,-0.00994867,0.008251439],"split_type":[0,0,0,0,0,0,0,0,0,0,0,0,0,0,0]},{"id":46,"split_indices":[27,3,17,30,11,0,9,0,0,0,0,0,0,0,0],"split_conditions":[0.08264028,0.41284528,1156.0,0.055348475,0.3077367,46.7,0.3361244,-0.038864564,-0.002004339,-0.0024243211,-0.032497812,0.01435645,-0.00016291665,0.018046942,-0.01225874],"left_children":[1,3,5,7,9,11,13,-1,-1,-1,-1,-1,-1,-1,-1],"right_children":[2,4,6,8,10,12,14,-1,-1,-1,-1,-1,-1,-1,-1],"default_left":[0,0,0,0,0,0,0,0,0,0,0,0,0,0,0],"base_weights":[-0.00056448753,-0.15797526,0.038757503,-0.05735498,-0.28826305,0.103452675,-0.094231,-0.038864564,-0.002004339,-0.0024243211,-0.032497812,0.01435645,-0.00016291665,0.018046942,-0.01225874],"split_type":[0,0,0,0,0,0,0,0,0,0,0,0,0,0,0]},{"id":47,"split_indices":[14,9,30,14,3,9,8,0,0,0,0,0,0,0,0],"split_conditions":[2.0,0.18959308,0.082775906,1.0,0.3031912,0.22811998,0.53045005,-0.01557838,0.03249063,0.013405288,-0.0035837211,0.0549461,-0.012661864,-0.0,-0.055970766],"left_children":[1,3,5,7,9,11,13,-1,-1,-1,-1,-1,-1,-1,-1],"right_children":[2,4,6,8,10,12,14,-1,-1,-1,-1,-1,-1,-1,-1],"default_left":[0,0,0,0,0,1,0,0,0,0,0,0,0,0,0],"base_weights":[-0.0014429548,0.0093802195,-0.5032267,0.32016444,-0.007766564,0.31792536,-0.57280177,-0.01557838,0.03249063,0.013405288,-0.0035837211,0.0549461,-0.012661864,-0.0,-0.055970766],"split_type":[0,0,0,0,0,0,0,0,0,0,0,0,0,0,0]},{"id":48,"split_indices":[8,0,0,14,24,14,23,0,0,0,0,0,0,0,0],"split_conditions":[0.6587743,54.3,34.9,1.0,0.106545866,2.0,5.0,-0.0200184,0.009197095,-0.009743261,0.020330077,0.00056961447,-0.048141412,-0.021038288,0.007256107],"left_children":[1,3,5,7,9,11,13,-1,-1,-1,-1,-1,-1,-1,-1],"right_children":[2,4,6,8,10,12,14,-1,-1,-1,-1,-1,-1,-1,-1],"default_left":[0,0,0,0,0,0,0,0,0,0,0,0,0,0,0],"base_weights":[-0.006769776,0.03716454,-0.11151519,0.08218752,-0.09134724,-0.008885731,-0.20467785,-0.0200184,0.009197095,-0.009743261,0.020330077,0.00056961447,-0.048141412,-0.021038288,0.007256107],"split_type":[0,0,0,0,0,0,0,0,0,0,0,0,0,0,0]},{"id":49,"split_indices":[14,7,30,9,10,11,2,0,0,0,0,0,0,0,0],"split_conditions":[2.0,0.7952919,0.082775906,0.3194622,0.70596564,0.292588,0.13912103,0.020568402,0.0015667831,0.0008402503,-0.024687838,0.06406542,-0.0071652574,-0.026762607,-0.069227315],"left_children":[1,3,5,7,9,11,13,-1,-1,-1,-1,-1,-1,-1,-1],"right_children":[2,4,6,8,10,12,14,-1,-1,-1,-1,-1,-1,-1,-1],"default_left":[0,0,0,1,0,1,0,0,0,0,0,0,0,0,0],"base_weights":[0.0044043567,0.015305185,-0.49874875,0.18150821,-0.016459588,0.3882172,-0.5855565,0.020568402,0.0015667831,0.0008402503,-0.024687838,0.06406542,-0.0071652574,-0.026762607,-0.069227315],"split_type":[0,0,0,0,0,0,0,0,0,0,0,0,0,0,0]},{"id":50,"split_indices":[27,14,17,10,9,14,9,0,0,0,0,0,0,0,0],"split_conditions":[0.08264028,1.0,1259.0,0.525352,0.1764711,1.0,0.38018972,-0.01580652,-0.06291093,0.04106462,-0.011597423,-0.012485731,0.009507477,0.014787864,-0.011647468],"left_children":[1,3,5,7,9,11,13,-1,-1,-1,-1,-1,-1,-1,-1],"right_children":[2,4,6,8,10,12,14,-1,-1,-1,-1,-1,-1,-1,-1],"default_left":[0,0,0,0,0,0,0,0,0,0,0,0,0,0,0],"base_weights":[-0.00042775023,-0.14567605,0.03553292,-0.47525904,-0.10628055,0.086755544,-0.0821558,-0.01580652,-0.06291093,0.04106462,-0.011597423,-0.012485731,0.009507477,0.014787864,-0.011647468],"split_type":[0,0,0,0,0,0,0,0,0,0,0,0,0,0,0]},{"id":51,"split_indices":[10,10,11,3,9,10,9,0,0,0,0,0,0,0,0],"split_conditions":[0.1258333,0.0099712955,0.1276988,0.7876317,0.27088487,0.7524196,0.1764711,0.055868845,-0.0,0.022135671,-0.004410136,0.026253441,-0.049059857,0.024767134,-0.003505051],"left_children":[1,3,5,7,9,11,13,-1,-1,-1,-1,-1,-1,-1,-1],"right_children":[2,4,6,8,10,12,14,-1,-1,-1,-1,-1,-1,-1,-1],"default_left":[0,0,0,0,1,1,0,0,0,0,0,0,0,0,0],"base_weights":[0.007930935,0.23390149,-0.010951703,0.61625147,0.18464531,0.28294855,-0.0256567,0.055868845,-0.0,0.022135671,-0.004410136,0.026253441,-0.049059857,0.024767134,-0.003505051],"split_type":[0,0,0,0,0,0,0,0,0,0,0,0,0,0,0]},{"id":52,"split_indices":[16,26,8,30,28,0,26,0,0,0,0,0,0,0,0],"split_conditions":[3.0,0.096404016,0.79961294,0.082775906,0.09766659,39.8,0.09293169,-0.023204185,-0.003839416,0.0011051357,0.019205725,0.022811718,0.005829863,-0.04313581,0.02256643],"left_children":[1,3,5,7,9,11,13,-1,-1,-1,-1,-1,-1,-1,-1],"right_children":[2,4,6,8,10,12,14,-1,-1,-1,-1,-1,-1,-1,-1],"default_left":[0,0,0,0,0,0,0,0,0,0,0,0,0,0,0],"base_weights":[0.001154929,-0.029116554,0.13437587,-0.06168862,0.07421924,0.1584288,-0.23148584,-0.023204185,-0.003839416,0.0011051357,0.019205725,0.022811718,0.005829863,-0.04313581,0.02256643],"split_type":[0,0,0,0,0,0,0,0,0,0,0,0,0,0,0]},{"id":53,"split_indices":[10,9,28,0,2,23,22,0,0,0,0,0,0,0,0],"split_conditions":[0.69379944,0.42324653,0.08219603,47.7,0.19297127,2.0,2.0,0.010529494,-0.005035499,-0.00045426082,-0.01974939,-0.03686571,-0.00938272,-0.001978625,0.06744178],"left_children":[1,3,5,7,9,11,13,-1,-1,-1,-1,-1,-1,-1,-1],"right_children":[2,4,6,8,10,12,14,-1,-1,-1,-1,-1,-1,-1,-1],"default_left":[1,1,0,0,0,0,0,0,0,0,0,0,0,0,0],"base_weights":[0.0033798541,0.028633561,-0.20207657,0.062919356,-0.10831592,-0.28385264,0.01990616,0.010529494,-0.005035499,-0.00045426082,-0.01974939,-0.03686571,-0.00938272,-0.001978625,0.06744178],"split_type":[0,0,0,0,0,0,0,0,0,0,0,0,0,0,0]},{"id":54,"split_indices":[11,14,4,1,11,9,3,0,0,0,0,0,0,0,0],"split_conditions":[0.42765737,1.0,0.157,130500.0,0.12064103,0.31371522,0.30067432,0.0021793086,-0.02933989,0.027406575,0.008359486,-0.008093008,-0.025534105,0.017414536,-0.0019190396],"left_children":[1,3,5,7,9,11,13,-1,-1,-1,-1,-1,-1,-1,-1],"right_children":[2,4,6,8,10,12,14,-1,-1,-1,-1,-1,-1,-1,-1],"default_left":[0,0,0,0,0,1,0,0,0,0,0,0,0,0,0],"base_weights":[-6.184375e-05,0.09834468,-0.053779684,-0.17076199,0.12216973,-0.14590308,0.014199269,0.0021793086,-0.02933989,0.027406575,0.008359486,-0.008093008,-0.025534105,0.017414536,-0.0019190396],"split_type":[0,0,0,0,0,0,0,0,0,0,0,0,0,0,0]},{"id":55,"split_indices":[17,27,24,14,0,9,22,0,0,0,0,0,0,0,0],"split_conditions":[1327.0,0.08868837,0.10632722,1.0,53.5,0.27404237,1.0,-0.03575382,-0.0049272627,0.01153968,-0.0063430723,0.01098281,-0.01525948,0.011588935,-0.023279618],"left_children":[1,3,5,7,9,11,13,-1,-1,-1,-1,-1,-1,-1,-1],"right_children":[2,4,6,8,10,12,14,-1,-1,-1,-1,-1,-1,-1,-1],"default_left":[0,0,0,0,0,0,0,0,0,0,0,0,0,0,0],"base_weights":[-0.0032861603,0.041154623,-0.1162781,-0.09877974,0.08455025,-0.14782296,0.06513527,-0.03575382,-0.0049272627,0.01153968,-0.0063430723,0.01098281,-0.01525948,0.011588935,-0.023279618],"split_type":[0,0,0,0,0,0,0,0,0,0,0,0,0,0,0]},{"id":56,"split_indices":[11,6,14,15,9,30,30,0,0,0,0,0,0,0,0],"split_conditions":[0.15568937,1.8,2.0,0.04622,0.66603315,0.082775906,0.082775906,0.008598114,-0.04090789,0.026838407,-0.010241052,-0.020337889,0.0011323057,0.032716807,-0.045028627],"left_children":[1,3,5,7,9,11,13,-1,-1,-1,-1,-1,-1,-1,-1],"right_children":[2,4,6,8,10,12,14,-1,-1,-1,-1,-1,-1,-1,-1],"default_left":[0,0,0,0,1,0,0,0,0,0,0,0,0,0,0],"base_weights":[0.0010322821,0.22941354,-0.015696792,0.051989023,0.27807054,-0.0064899786,-0.43571362,0.008598114,-0.04090789,0.026838407,-0.010241052,-0.020337889,0.0011323057,0.032716807,-0.045028627],"split_type":[0,0,0,0,0,0,0,0,0,0,0,0,0,0,0]},{"id":57,"split_indices":[11,24,7,9,6,7,7,0,0,0,0,0,0,0,0],"split_conditions":[0.12064103,0.060765807,0.9198617,0.46843037,1.066,0.7163324,1.0,0.0023611207,-0.06405169,-0.010519933,0.030868886,0.024767023,0.0011906313,-0.02616143,-0.0051088906],"left_children":[1,3,5,7,9,11,13,-1,-1,-1,-1,-1,-1,-1,-1],"right_children":[2,4,6,8,10,12,14,-1,-1,-1,-1,-1,-1,-1,-1],"default_left":[0,0,0,0,0,0,0,0,0,0,0,0,0,0,0],"base_weights":[-0.0035050912,0.29277837,-0.017394725,-0.35514215,0.31942317,0.031112028,-0.09640011,0.0023611207,-0.06405169,-0.010519933,0.030868886,0.024767023,0.0011906313,-0.02616143,-0.0051088906],"split_type":[0,0,0,0,0,0,0,0,0,0,0,0,0,0,0]},{"id":58,"split_indices":[8,11,11,9,8,26,9,0,0,0,0,0,0,0,0],"split_conditions":[0.65488654,0.6785677,0.43473324,0.81264657,0.4632225,0.0643055,0.6333819,0.0069023506,-0.041921586,0.022996608,-0.016335145,-0.02970964,0.003772843,-0.012611355,-0.043109912],"left_children":[1,3,5,7,9,11,13,-1,-1,-1,-1,-1,-1,-1,-1],"right_children":[2,4,6,8,10,12,14,-1,-1,-1,-1,-1,-1,-1,-1],"default_left":[0,1,0,1,0,0,1,0,0,0,0,0,0,0,0],"base_weights":[-0.0006058437,0.04317119,-0.10046009,0.06877874,-0.13485529,0.003501069,-0.1699669,0.0069023506,-0.041921586,0.022996608,-0.016335145,-0.02970964,0.003772843,-0.012611355,-0.043109912],"split_type":[0,0,0,0,0,0,0,0,0,0,0,0,0,0,0]},{"id":59,"split_indices":[28,16,9,1,5,5,3,0,0,0,0,0,0,0,0],"split_conditions":[0.09766659,2.0,0.27404237,162000.0,0.7496857,0.7878,0.3056314,-0.007381472,-0.030510258,0.008220723,-0.004573858,0.027977705,0.011835933,0.012805556,-0.013556172],"left_children":[1,3,5,7,9,11,13,-1,-1,-1,-1,-1,-1,-1,-1],"right_children":[2,4,6,8,10,12,14,-1,-1,-1,-1,-1,-1,-1,-1],"default_left":[0,0,1,0,0,0,0,0,0,0,0,0,0,0,0],"base_weights":[0.0008825574,-0.038107682,0.10551656,-0.27067223,-0.01821022,0.1805639,-0.09023861,-0.007381472,-0.030510258,0.008220723,-0.004573858,0.027977705,0.011835933,0.012805556,-0.013556172],"split_type":[0,0,0,0,0,0,0,0,0,0,0,0,0,0,0]},{"id":60,"split_indices":[10,22,11,14,11,3,7,0,0,0,0,0,0,0,0],"split_conditions":[0.70596564,1.0,0.51369375,2.0,0.47764915,0.24685541,0.78296274,0.0050365883,-0.035930354,-0.0,-0.026454685,0.16395715,-0.0056444933,0.008799018,-0.03333086],"left_children":[1,3,5,7,9,11,13,-1,-1,-1,-1,-1,-1,-1,-1],"right_children":[2,4,6,8,10,12,14,-1,-1,-1,-1,-1,-1,-1,-1],"default_left":[1,0,0,0,0,0,0,0,0,0,0,0,0,0,0],"base_weights":[-0.00072456955,0.01814295,-0.20663391,0.0475153,-0.14599647,-0.04735879,-0.3247356,0.0050365883,-0.035930354,-0.0,-0.026454685,0.16395715,-0.0056444933,0.008799018,-0.03333086],"split_type":[0,0,0,0,0,0,0,0,0,0,0,0,0,0,0]},{"id":61,"split_indices":[9,5,27,0,27,6,17,0,0,0,0,0,0,0,0],"split_conditions":[0.69661224,0.843,0.08953711,41.6,0.08868837,1.8181819,1859.0,0.0118147945,-0.0008293427,-0.015218582,-0.00011969636,-0.056985468,-0.023585755,-0.0,-0.044330563],"left_children":[1,3,5,7,9,11,13,-1,-1,-1,-1,-1,-1,-1,-1],"right_children":[2,4,6,8,10,12,14,-1,-1,-1,-1,-1,-1,-1,-1],"default_left":[1,0,0,0,0,0,0,0,0,0,0,0,0,0,0],"base_weights":[-0.0,0.014344715,-0.23875758,0.06485478,-0.045429084,-0.337008,-0.08282089,0.0118147945,-0.0008293427,-0.015218582,-0.00011969636,-0.056985468,-0.023585755,-0.0,-0.044330563],"split_type":[0,0,0,0,0,0,0,0,0,0,0,0,0,0,0]},{"id":62,"split_indices":[7,8,28,0,10,6,9,0,0,0,0,0,0,0,0],"split_conditions":[0.83472455,0.6437135,0.09766659,54.0,0.16733167,1.8181819,0.41225156,0.01951451,-0.00031036,0.027493672,-0.0075317733,-0.018469146,-0.0027641924,0.009794694,-0.010614436],"left_children":[1,3,5,7,9,11,13,-1,-1,-1,-1,-1,-1,-1,-1],"right_children":[2,4,6,8,10,12,14,-1,-1,-1,-1,-1,-1,-1,-1],"default_left":[0,0,0,0,0,0,1,0,0,0,0,0,0,0,0],"base_weights":[0.0049112416,0.103379674,-0.029154897,0.17040558,-0.031904723,-0.063508555,0.067600854,0.01951451,-0.00031036,0.027493672,-0.0075317733,-0.018469146,-0.0027641924,0.009794694,-0.010614436],"split_type":[0,0,0,0,0,0,0,0,0,0,0,0,0,0,0]},{"id":63,"split_indices":[7,4,11,10,9,16,9,0,0,0,0,0,0,0,0],"split_conditions":[0.7163324,0.1505,0.6127042,0.384173,0.36031026,3.0,0.29888138,0.031371478,0.0016465147,-0.0,0.045615483,-0.0018630313,0.0112360185,-0.0075550494,-0.024705809],"left_children":[1,3,5,7,9,11,13,-1,-1,-1,-1,-1,-1,-1,-1],"right_children":[2,4,6,8,10,12,14,-1,-1,-1,-1,-1,-1,-1,-1],"default_left":[0,0,1,0,0,0,1,0,0,0,0,0,0,0,0],"base_weights":[-0.009842213,0.28756046,-0.022613129,0.15293984,0.44557464,0.0065879286,-0.1435262,0.031371478,0.0016465147,-0.0,0.045615483,-0.0018630313,0.0112360185,-0.0075550494,-0.024705809],"split_type":[0,0,0,0,0,0,0,0,0,0,0,0,0,0,0]},{"id":64,"split_indices":[24,10,26,8,23,15,2,0,0,0,0,0,0,0,0],"split_conditions":[0.110866696,0.7232564,0.09547468,0.6223159,2.0,0.02461,0.3709013,0.004309237,-0.005446193,-0.032459866,-0.0038058974,0.013727155,-0.010622913,0.038408924,0.00026437675],"left_children":[1,3,5,7,9,11,13,-1,-1,-1,-1,-1,-1,-1,-1],"right_children":[2,4,6,8,10,12,14,-1,-1,-1,-1,-1,-1,-1,-1],"default_left":[0,1,0,0,0,0,0,0,0,0,0,0,0,0,0],"base_weights":[0.006102971,-0.011407644,0.18915072,0.0020805139,-0.22977565,0.0638616,0.37168434,0.004309237,-0.005446193,-0.032459866,-0.0038058974,0.013727155,-0.010622913,0.038408924,0.00026437675],"split_type":[0,0,0,0,0,0,0,0,0,0,0,0,0,0,0]},{"id":65,"split_indices":[10,10,9,15,1,0,16,0,0,0,0,0,0,0,0],"split_conditions":[0.334018,0.023208275,0.14843227,0.019689,112500.0,27.2,2.0,0.045938358,0.011308909,-0.0010885535,0.010857767,0.0009140819,0.037620265,-0.018233735,-0.00164728],"left_children":[1,3,5,7,9,11,13,-1,-1,-1,-1,-1,-1,-1,-1],"right_children":[2,4,6,8,10,12,14,-1,-1,-1,-1,-1,-1,-1,-1],"default_left":[0,0,0,0,0,0,0,0,0,0,0,0,0,0,0],"base_weights":[0.008097407,0.10244523,-0.027600925,0.4162766,0.08329173,0.31317177,-0.0376843,0.045938358,0.011308909,-0.0010885535,0.010857767,0.0009140819,0.037620265,-0.018233735,-0.00164728],"split_type":[0,0,0,0,0,0,0,0,0,0,0,0,0,0,0]},{"id":66,"split_indices":[22,26,25,6,28,2,28,0,0,0,0,0,0,0,0],"split_conditions":[1.0,0.096404016,0.09546012,2.2722309,0.08219603,0.7994966,0.09766659,-0.007755182,0.0031294662,0.0060245655,0.02366764,-0.018867346,-0.072274454,-0.008855623,0.012137156],"left_children":[1,3,5,7,9,11,13,-1,-1,-1,-1,-1,-1,-1,-1],"right_children":[2,4,6,8,10,12,14,-1,-1,-1,-1,-1,-1,-1,-1],"default_left":[0,0,0,0,0,0,0,0,0,0,0,0,0,0,0],"base_weights":[0.008896728,0.032665774,-0.120918185,-0.0,0.13476914,-0.23283698,-0.03216234,-0.007755182,0.0031294662,0.0060245655,0.02366764,-0.018867346,-0.072274454,-0.008855623,0.012137156],"split_type":[0,0,0,0,0,0,0,0,0,0,0,0,0,0,0]},{"id":67,"split_indices":[11,10,24,10,14,29,24,0,0,0,0,0,0,0,0],"split_conditions":[0.7862666,0.2586948,0.106545866,0.023208275,2.0,0.08299568,0.11017147,0.03396406,0.00861173,-0.000456357,-0.02891176,-0.04082646,0.010430579,0.10446057,-0.006287854],"left_children":[1,3,5,7,9,11,13,-1,-1,-1,-1,-1,-1,-1,-1],"right_children":[2,4,6,8,10,12,14,-1,-1,-1,-1,-1,-1,-1,-1],"default_left":[1,1,0,0,0,0,0,0,0,0,0,0,0,0,0],"base_weights":[0.0040874803,0.01300983,-0.33908036,0.12123128,-0.012696241,-0.4102388,0.12835641,0.03396406,0.00861173,-0.000456357,-0.02891176,-0.04082646,0.010430579,0.10446057,-0.006287854],"split_type":[0,0,0,0,0,0,0,0,0,0,0,0,0,0,0]},{"id":68,"split_indices":[9,0,11,24,10,15,22,0,0,0,0,0,0,0,0],"split_conditions":[0.19434394,27.2,0.40140742,0.06417478,0.6582019,0.072508,1.0,0.033889733,-0.002942321,0.0314604,-0.0,0.006599964,-0.037114162,-0.0017001061,-0.017395843],"left_children":[1,3,5,7,9,11,13,-1,-1,-1,-1,-1,-1,-1,-1],"right_children":[2,4,6,8,10,12,14,-1,-1,-1,-1,-1,-1,-1,-1],"default_left":[0,0,0,0,0,0,0,0,0,0,0,0,0,0,0],"base_weights":[0.0034859285,0.22880119,-0.009895173,0.034804553,0.31532815,0.06487398,-0.044238612,0.033889733,-0.002942321,0.0314604,-0.0,0.006599964,-0.037114162,-0.0017001061,-0.017395843],"split_type":[0,0,0,0,0,0,0,0,0,0,0,0,0,0,0]},{"id":69,"split_indices":[26,6,9,26,14,28,14,0,0,0,0,0,0,0,0],"split_conditions":[0.09063101,2.357625,0.3194622,0.07482316,2.0,0.08356331,1.0,-0.023361491,0.0011567262,-0.0003588204,-0.03925094,0.0040522767,0.016904362,-0.03548601,-0.0],"left_children":[1,3,5,7,9,11,13,-1,-1,-1,-1,-1,-1,-1,-1],"right_children":[2,4,6,8,10,12,14,-1,-1,-1,-1,-1,-1,-1,-1],"default_left":[0,0,1,0,0,0,0,0,0,0,0,0,0,0,0],"base_weights":[0.00347129,-0.057105165,0.058452383,-0.16478206,-0.013394949,0.09511114,-0.033040367,-0.023361491,0.0011567262,-0.0003588204,-0.03925094,0.0040522767,0.016904362,-0.03548601,-0.0],"split_type":[0,0,0,0,0,0,0,0,0,0,0,0,0,0,0]},{"id":70,"split_indices":[7,8,3,21,28,17,14,0,0,0,0,0,0,0,0],"split_conditions":[0.8256301,0.8384836,0.25940138,2.0,0.08356331,1834.0,2.0,0.009089474,-0.030092342,-0.04903446,0.009028445,0.02500118,-0.009613321,-0.003742992,-0.034278613],"left_children":[1,3,5,7,9,11,13,-1,-1,-1,-1,-1,-1,-1,-1],"right_children":[2,4,6,8,10,12,14,-1,-1,-1,-1,-1,-1,-1,-1],"default_left":[0,0,0,0,0,0,0,0,0,0,0,0,0,0,0],"base_weights":[-0.009079759,0.07812056,-0.03889122,0.0921475,-0.29679814,0.22657803,-0.04939814,0.009089474,-0.030092342,-0.04903446,0.009028445,0.02500118,-0.009613321,-0.003742992,-0.034278613],"split_type":[0,0,0,0,0,0,0,0,0,0,0,0,0,0,0]},{"id":71,"split_indices":[10,9,15,26,0,9,30,0,0,0,0,0,0,0,0],"split_conditions":[0.2586948,0.20240743,0.032561,0.054574456,28.2,0.25473744,0.082775906,-0.005968786,0.016964974,-0.030821761,0.0023455254,0.013627612,-0.0026477566,-0.039012745,-0.011803501],"left_children":[1,3,5,7,9,11,13,-1,-1,-1,-1,-1,-1,-1,-1],"right_children":[2,4,6,8,10,12,14,-1,-1,-1,-1,-1,-1,-1,-1],"default_left":[0,1,0,0,0,0,0,0,0,0,0,0,0,0,0],"base_weights":[-0.0078471,0.09763527,-0.03299314,0.14736117,-0.02791618,-0.012537567,-0.163248,-0.005968786,0.016964974,-0.030821761,0.0023455254,0.013627612,-0.0026477566,-0.039012745,-0.011803501],"split_type":[0,0,0,0,0,0,0,0,0,0,0,0,0,0,0]},{"id":72,"split_indices":[28,11,26,15,16,11,5,0,0,0,0,0,0,0,0],"split_conditions":[0.08065853,0.41359675,0.11596555,0.072508,3.0,0.7463002,0.937,0.005734186,-0.04896292,-0.010390546,0.0022646878,0.006469276,-0.020031018,0.039786655,-0.060376976],"left_children":[1,3,5,7,9,11,13,-1,-1,-1,-1,-1,-1,-1,-1],"right_children":[2,4,6,8,10,12,14,-1,-1,-1,-1,-1,-1,-1,-1],"default_left":[0,0,0,0,0,1,0,0,0,0,0,0,0,0,0],"base_weights":[-0.0027546403,-0.04105321,0.07271631,0.054335944,-0.0900698,0.059345912,0.3939337,0.005734186,-0.04896292,-0.010390546,0.0022646878,0.006469276,-0.020031018,0.039786655,-0.060376976],"split_type":[0,0,0,0,0,0,0,0,0,0,0,0,0,0,0]},{"id":73,"split_indices":[11,15,22,27,17,9,17,0,0,0,0,0,0,0,0],"split_conditions":[0.40487838,0.072508,1.0,0.08868837,1515.0,0.64696616,1541.0,-0.0004829979,0.010556098,-0.047542483,0.00044529565,0.00063283386,-0.01700957,-0.010017712,-0.035961457],"left_children":[1,3,5,7,9,11,13,-1,-1,-1,-1,-1,-1,-1,-1],"right_children":[2,4,6,8,10,12,14,-1,-1,-1,-1,-1,-1,-1,-1],"default_left":[0,0,0,0,0,1,0,0,0,0,0,0,0,0,0],"base_weights":[0.003255637,0.07806038,-0.032830678,0.08638922,-0.36313364,-0.008091915,-0.18806298,-0.0004829979,0.010556098,-0.047542483,0.00044529565,0.00063283386,-0.01700957,-0.010017712,-0.035961457],"split_type":[0,0,0,0,0,0,0,0,0,0,0,0,0,0,0]},{"id":74,"split_indices":[3,1,0,6,7,9,28,0,0,0,0,0,0,0,0],"split_conditions":[0.39813006,139500.0,42.1,2.62372,0.9154156,0.14843227,0.08182608,-0.014170662,0.0031603223,0.014136485,0.00046883427,0.0068236673,-0.00987568,-0.019709371,0.0021523184],"left_children":[1,3,5,7,9,11,13,-1,-1,-1,-1,-1,-1,-1,-1],"right_children":[2,4,6,8,10,12,14,-1,-1,-1,-1,-1,-1,-1,-1],"default_left":[0,0,0,0,0,1,0,0,0,0,0,0,0,0,0],"base_weights":[-0.0012264927,0.038029205,-0.05876335,-0.02135971,0.10386873,-0.012562153,-0.16308369,-0.014170662,0.0031603223,0.014136485,0.00046883427,0.0068236673,-0.00987568,-0.019709371,0.0021523184],"split_type":[0,0,0,0,0,0,0,0,0,0,0,0,0,0,0]},{"id":75,"split_indices":[11,9,14,14,12,10,2,0,0,0,0,0,0,0,0],"split_conditions":[0.5726825,0.81264657,2.0,1.0,2.0,0.6469733,0.08441707,-0.012524207,0.0057787015,-0.00062477496,-0.06095125,-0.0009847697,-0.01478218,-0.00470288,-0.066410914],"left_children":[1,3,5,7,9,11,13,-1,-1,-1,-1,-1,-1,-1,-1],"right_children":[2,4,6,8,10,12,14,-1,-1,-1,-1,-1,-1,-1,-1],"default_left":[0,1,0,0,0,0,0,0,0,0,0,0,0,0,0],"base_weights":[-0.0031553884,0.041350808,-0.05379689,0.04915517,-0.50265425,-0.044725634,-0.56165576,-0.012524207,0.0057787015,-0.00062477496,-0.06095125,-0.0009847697,-0.01478218,-0.00470288,-0.066410914],"split_type":[0,0,0,0,0,0,0,0,0,0,0,0,0,0,0]},{"id":76,"split_indices":[5,7,1,8,11,0,30,0,0,0,0,0,0,0,0],"split_conditions":[0.7853,0.7163324,144000.0,0.5755708,0.80274546,65.2,0.082775906,0.061133612,0.0072935596,0.0065082856,-0.043024965,-0.0077853375,-0.046389,-0.02032461,0.0027000678],"left_children":[1,3,5,7,9,11,13,-1,-1,-1,-1,-1,-1,-1,-1],"right_children":[2,4,6,8,10,12,14,-1,-1,-1,-1,-1,-1,-1,-1],"default_left":[0,0,0,0,1,0,0,0,0,0,0,0,0,0,0],"base_weights":[-0.0001952988,0.076141864,-0.034054335,0.5423333,0.061757285,-0.10155939,0.011679045,0.061133612,0.0072935596,0.0065082856,-0.043024965,-0.0077853375,-0.046389,-0.02032461,0.0027000678],"split_type":[0,0,0,0,0,0,0,0,0,0,0,0,0,0,0]},{"id":77,"split_indices":[14,4,11,1,24,29,17,0,0,0,0,0,0,0,0],"split_conditions":[2.0,0.157,0.13510601,166500.0,0.110866696,0.07823657,2.0,-0.008157956,0.0016860251,0.0033050254,0.019073384,-0.004073193,0.062669516,-0.0,-0.042750735],"left_children":[1,3,5,7,9,11,13,-1,-1,-1,-1,-1,-1,-1,-1],"right_children":[2,4,6,8,10,12,14,-1,-1,-1,-1,-1,-1,-1,-1],"default_left":[0,0,0,0,0,0,0,0,0,0,0,0,0,0,0],"base_weights":[0.006778986,0.013825804,-0.32634735,-0.032859202,0.05275097,0.3526566,-0.39470848,-0.008157956,0.0016860251,0.0033050254,0.019073384,-0.004073193,0.062669516,-0.0,-0.042750735],"split_type":[0,0,0,0,0,0,0,0,0,0,0,0,0,0,0]},{"id":78,"split_indices":[16,11,29,26,14,15,0,0,0,0,0,0,0,0,0],"split_conditions":[3.0,0.16146308,0.08673025,0.052640613,2.0,0.00823,26.8,-0.033047017,0.014073013,-0.0029342852,-0.03325812,0.014029874,0.0010281776,-0.019786404,0.04194027],"left_children":[1,3,5,7,9,11,13,-1,-1,-1,-1,-1,-1,-1,-1],"right_children":[2,4,6,8,10,12,14,-1,-1,-1,-1,-1,-1,-1,-1],"default_left":[0,0,0,0,0,0,0,0,0,0,0,0,0,0,0],"base_weights":[-0.0049892594,-0.026802564,0.08901658,0.14491291,-0.040805493,0.06157546,0.3188859,-0.033047017,0.014073013,-0.0029342852,-0.03325812,0.014029874,0.0010281776,-0.019786404,0.04194027],"split_type":[0,0,0,0,0,0,0,0,0,0,0,0,0,0,0]},{"id":79,"split_indices":[17,27,30,0,0,4,9,0,0,0,0,0,0,0,0],"split_conditions":[1798.0,0.08868837,0.082775906,26.8,42.2,0.1371,0.64412636,-0.03147552,-0.0025816744,0.010229797,-0.0010627245,-0.03271383,-0.08865756,0.003145381,-0.012962104],"left_children":[1,3,5,7,9,11,13,-1,-1,-1,-1,-1,-1,-1,-1],"right_children":[2,4,6,8,10,12,14,-1,-1,-1,-1,-1,-1,-1,-1],"default_left":[0,0,0,0,0,0,0,0,0,0,0,0,0,0,0],"base_weights":[0.0046698577,0.024226468,-0.106395975,-0.07241151,0.053616498,-0.57487047,-0.081859544,-0.03147552,-0.0025816744,0.010229797,-0.0010627245,-0.03271383,-0.08865756,0.003145381,-0.012962104],"split_type":[0,0,0,0,0,0,0,0,0,0,0,0,0,0,0]},{"id":80,"split_indices":[11,0,8,25,10,28,5,0,0,0,0,0,0,0,0],"split_conditions":[0.08226851,59.7,0.7735365,0.09621923,0.57847035,0.08065853,0.90735,0.033477858,-0.0030256493,-0.0,-0.09518296,-0.0009020995,0.007008332,-0.005461733,-0.026533071],"left_children":[1,3,5,7,9,11,13,-1,-1,-1,-1,-1,-1,-1,-1],"right_children":[2,4,6,8,10,12,14,-1,-1,-1,-1,-1,-1,-1,-1],"default_left":[0,0,0,0,0,0,0,0,0,0,0,0,0,0,0],"base_weights":[0.012533341,0.30095425,0.0059297318,0.33490863,-0.24215722,0.019346185,-0.13108736,0.033477858,-0.0030256493,-0.0,-0.09518296,-0.0009020995,0.007008332,-0.005461733,-0.026533071],"split_type":[0,0,0,0,0,0,0,0,0,0,0,0,0,0,0]},{"id":81,"split_indices":[3,0,27,26,9,11,0,0,0,0,0,0,0,0,0],"split_conditions":[0.4369375,65.2,0.08868837,0.11549793,0.69086725,0.24719094,35.4,0.0028028225,0.023746405,0.10502885,-0.033754125,0.0014761549,-0.023008134,0.0068844315,-0.007590059],"left_children":[1,3,5,7,9,11,13,-1,-1,-1,-1,-1,-1,-1,-1],"right_children":[2,4,6,8,10,12,14,-1,-1,-1,-1,-1,-1,-1,-1],"default_left":[0,0,0,0,0,0,0,0,0,0,0,0,0,0,0],"base_weights":[0.002523683,0.034672376,-0.06401593,0.042975754,-0.29392657,-0.20802759,-0.01003791,0.0028028225,0.023746405,0.10502885,-0.033754125,0.0014761549,-0.023008134,0.0068844315,-0.007590059],"split_type":[0,0,0,0,0,0,0,0,0,0,0,0,0,0,0]},{"id":82,"split_indices":[26,9,9,10,8,6,14,0,0,0,0,0,0,0,0],"split_conditions":[0.07482316,0.16274537,0.29888138,0.702801,0.7095009,4.6722,1.0,0.034627344,-0.086956725,-0.005507964,-0.020737585,0.009948528,-0.002354975,-0.03301754,-0.0023784125],"left_children":[1,3,5,7,9,11,13,-1,-1,-1,-1,-1,-1,-1,-1],"right_children":[2,4,6,8,10,12,14,-1,-1,-1,-1,-1,-1,-1,-1],"default_left":[0,0,1,0,0,0,0,0,0,0,0,0,0,0,0],"base_weights":[-0.0005465041,-0.079905994,0.03701285,0.33284557,-0.09043753,0.07629977,-0.055815525,0.034627344,-0.086956725,-0.005507964,-0.020737585,0.009948528,-0.002354975,-0.03301754,-0.0023784125],"split_type":[0,0,0,0,0,0,0,0,0,0,0,0,0,0,0]},{"id":83,"split_indices":[10,24,23,11,12,15,27,0,0,0,0,0,0,0,0],"split_conditions":[0.71957356,0.10506088,2.0,0.8193177,4.0,0.002134,0.08956832,-0.0004785021,-0.046511758,0.009605831,-0.009615385,0.12561852,-0.027600534,0.010516002,-0.030984534],"left_children":[1,3,5,7,9,11,13,-1,-1,-1,-1,-1,-1,-1,-1],"right_children":[2,4,6,8,10,12,14,-1,-1,-1,-1,-1,-1,-1,-1],"default_left":[0,0,0,1,0,0,0,0,0,0,0,0,0,0,0],"base_weights":[0.0057213027,0.0176543,-0.16910736,-0.010524998,0.08475874,-0.29719594,-0.0,-0.0004785021,-0.046511758,0.009605831,-0.009615385,0.12561852,-0.027600534,0.010516002,-0.030984534],"split_type":[0,0,0,0,0,0,0,0,0,0,0,0,0,0,0]},{"id":84,"split_indices":[3,17,7,17,28,4,9,0,0,0,0,0,0,0,0],"split_conditions":[0.25940138,1859.0,0.8833922,135.0,0.09858525,0.2503143,0.73583996,0.001784401,0.029538965,8.291307e-05,-0.090698116,0.001760928,0.013855806,-0.0022999123,-0.023023559],"left_children":[1,3,5,7,9,11,13,-1,-1,-1,-1,-1,-1,-1,-1],"right_children":[2,4,6,8,10,12,14,-1,-1,-1,-1,-1,-1,-1,-1],"default_left":[0,0,0,0,0,0,1,0,0,0,0,0,0,0,0],"base_weights":[0.011089162,0.20993203,0.0028615042,0.2555022,-0.06667081,0.04729203,-0.036376353,0.001784401,0.029538965,8.291307e-05,-0.090698116,0.001760928,0.013855806,-0.0022999123,-0.023023559],"split_type":[0,0,0,0,0,0,0,0,0,0,0,0,0,0,0]},{"id":85,"split_indices":[4,10,16,0,9,3,0,0,0,0,0,0,0,0,0],"split_conditions":[0.2248,0.41955104,3.0,59.5,0.69366556,0.25606686,53.4,0.004148556,-0.016687794,-0.0049218726,-0.027576748,0.036131676,0.00014830728,0.020914216,-0.0007675578],"left_children":[1,3,5,7,9,11,13,-1,-1,-1,-1,-1,-1,-1,-1],"right_children":[2,4,6,8,10,12,14,-1,-1,-1,-1,-1,-1,-1,-1],"default_left":[0,0,0,0,1,0,0,0,0,0,0,0,0,0,0],"base_weights":[-0.011904467,-0.03734449,0.054757204,0.024114171,-0.07259662,0.017978614,0.178281,0.004148556,-0.016687794,-0.0049218726,-0.027576748,0.036131676,0.00014830728,0.020914216,-0.0007675578],"split_type":[0,0,0,0,0,0,0,0,0,0,0,0,0,0,0]},{"id":86,"split_indices":[15,6,2,1,24,17,11,0,0,0,0,0,0,0,0],"split_conditions":[0.032561,1.1428572,0.08117674,121500.0,0.10429124,590.0,0.18629295,-0.04645811,-0.008083957,-0.00035585652,0.008298755,-0.011877288,0.019016914,0.010006972,-0.023154784],"left_children":[1,3,5,7,9,11,13,-1,-1,-1,-1,-1,-1,-1,-1],"right_children":[2,4,6,8,10,12,14,-1,-1,-1,-1,-1,-1,-1,-1],"default_left":[0,0,0,0,0,0,0,0,0,0,0,0,0,0,0],"base_weights":[-0.00075942976,0.015904808,-0.12744392,-0.17871268,0.028856045,0.04962143,-0.21822879,-0.04645811,-0.008083957,-0.00035585652,0.008298755,-0.011877288,0.019016914,0.010006972,-0.023154784],"split_type":[0,0,0,0,0,0,0,0,0,0,0,0,0,0,0]},{"id":87,"split_indices":[8,10,6,10,9,26,6,0,0,0,0,0,0,0,0],"split_conditions":[0.77719253,0.2542455,2.29964,0.0099712955,0.25473744,0.07482316,5.0646152,0.03683688,0.0074911867,0.0112958485,-0.0016096284,-0.043351874,-0.012461531,0.0056330296,-0.030915214],"left_children":[1,3,5,7,9,11,13,-1,-1,-1,-1,-1,-1,-1,-1],"right_children":[2,4,6,8,10,12,14,-1,-1,-1,-1,-1,-1,-1,-1],"default_left":[0,1,0,0,0,0,0,0,0,0,0,0,0,0,0],"base_weights":[0.0022494392,0.014291602,-0.1286717,0.09897687,-0.005259525,-0.24936785,-0.015864074,0.03683688,0.0074911867,0.0112958485,-0.0016096284,-0.043351874,-0.012461531,0.0056330296,-0.030915214],"split_type":[0,0,0,0,0,0,0,0,0,0,0,0,0,0,0]},{"id":88,"split_indices":[22,26,6,0,11,11,11,0,0,0,0,0,0,0,0],"split_conditions":[1.0,0.096404016,7.112,26.8,0.79107493,0.09322509,0.70018387,-0.014590714,0.0014947967,0.009515065,-0.03268273,0.04336251,-0.0059292084,-0.024650594,-0.077713914],"left_children":[1,3,5,7,9,11,13,-1,-1,-1,-1,-1,-1,-1,-1],"right_children":[2,4,6,8,10,12,14,-1,-1,-1,-1,-1,-1,-1,-1],"default_left":[0,0,0,0,1,0,0,0,0,0,0,0,0,0,0],"base_weights":[0.008776805,0.025941193,-0.08532678,0.0027652944,0.09728709,-0.046470664,-0.42406428,-0.014590714,0.0014947967,0.009515065,-0.03268273,0.04336251,-0.0059292084,-0.024650594,-0.077713914],"split_type":[0,0,0,0,0,0,0,0,0,0,0,0,0,0,0]},{"id":89,"split_indices":[3,0,0,9,10,27,9,0,0,0,0,0,0,0,0],"split_conditions":[0.3747767,28.8,47.2,0.34137738,0.76720965,0.08264028,0.5444211,-0.0045256023,-0.060153373,0.0057771867,-0.031663366,-0.012875361,0.0020819125,0.028185785,-0.02075967],"left_children":[1,3,5,7,9,11,13,-1,-1,-1,-1,-1,-1,-1,-1],"right_children":[2,4,6,8,10,12,14,-1,-1,-1,-1,-1,-1,-1,-1],"default_left":[0,0,0,1,0,0,0,0,0,0,0,0,0,0,0],"base_weights":[0.0015785847,0.04257074,-0.046041895,-0.14587124,0.058701906,-0.014489558,-0.18066655,-0.0045256023,-0.060153373,0.0057771867,-0.031663366,-0.012875361,0.0020819125,0.028185785,-0.02075967],"split_type":[0,0,0,0,0,0,0,0,0,0,0,0,0,0,0]},{"id":90,"split_indices":[28,10,0,6,7,9,26,0,0,0,0,0,0,0,0],"split_conditions":[0.09766659,0.023208275,26.8,1.6584,0.7163324,0.18537848,0.059406683,-0.0038239816,0.034523096,0.0162815,-0.0035752675,-0.0,-0.038121678,-0.0058655334,0.014744062],"left_children":[1,3,5,7,9,11,13,-1,-1,-1,-1,-1,-1,-1,-1],"right_children":[2,4,6,8,10,12,14,-1,-1,-1,-1,-1,-1,-1,-1],"default_left":[0,1,0,0,0,1,0,0,0,0,0,0,0,0,0],"base_weights":[0.0037031465,-0.02634043,0.08416934,0.32406318,-0.03220198,-0.14174367,0.13142201,-0.0038239816,0.034523096,0.0162815,-0.0035752675,-0.0,-0.038121678,-0.0058655334,0.014744062],"split_type":[0,0,0,0,0,0,0,0,0,0,0,0,0,0,0]},{"id":91,"split_indices":[11,6,22,8,27,10,6,0,0,0,0,0,0,0,0],"split_conditions":[0.49566582,7.1575,1.0,0.58834094,0.089758106,0.6369364,6.845714,0.011868147,0.001975077,-0.016675116,0.016709756,0.0016643751,-0.011050345,-0.012081449,-0.041801143],"left_children":[1,3,5,7,9,11,13,-1,-1,-1,-1,-1,-1,-1,-1],"right_children":[2,4,6,8,10,12,14,-1,-1,-1,-1,-1,-1,-1,-1],"default_left":[0,0,0,0,0,1,0,0,0,0,0,0,0,0,0],"base_weights":[-0.0,0.04509675,-0.03532731,0.060523286,-0.1175568,-0.013474865,-0.18647546,0.011868147,0.001975077,-0.016675116,0.016709756,0.0016643751,-0.011050345,-0.012081449,-0.041801143],"split_type":[0,0,0,0,0,0,0,0,0,0,0,0,0,0,0]},{"id":92,"split_indices":[7,5,9,9,1,7,11,0,0,0,0,0,0,0,0],"split_conditions":[0.7163324,0.8387,0.0754091,0.38523495,198000.0,0.8256275,0.08226851,-0.00038578178,0.03991791,-0.0053854445,0.029650668,-0.0,0.04911426,0.020266743,-0.0022188928],"left_children":[1,3,5,7,9,11,13,-1,-1,-1,-1,-1,-1,-1,-1],"right_children":[2,4,6,8,10,12,14,-1,-1,-1,-1,-1,-1,-1,-1],"default_left":[0,0,0,0,0,0,0,0,0,0,0,0,0,0,0],"base_weights":[-0.0072739646,0.19882601,-0.016144402,0.3742831,0.062909946,0.45430145,-0.019494912,-0.00038578178,0.03991791,-0.0053854445,0.029650668,-0.0,0.04911426,0.020266743,-0.0022188928],"split_type":[0,0,0,0,0,0,0,0,0,0,0,0,0,0,0]},{"id":93,"split_indices":[11,6,14,1,17,8,8,0,0,0,0,0,0,0,0],"split_conditions":[0.13510601,1.198,2.0,202500.0,1299.0,0.8384836,0.52915,-0.03551775,0.0052911295,0.02112837,0.0034355142,-0.0001583047,-0.02029851,0.023178779,-0.03473388],"left_children":[1,3,5,7,9,11,13,-1,-1,-1,-1,-1,-1,-1,-1],"right_children":[2,4,6,8,10,12,14,-1,-1,-1,-1,-1,-1,-1,-1],"default_left":[0,0,0,0,0,0,0,0,0,0,0,0,0,0,0],"base_weights":[-0.0060153347,0.16944434,-0.01598646,-0.08767072,0.19568793,-0.009873996,-0.3178612,-0.03551775,0.0052911295,0.02112837,0.0034355142,-0.0001583047,-0.02029851,0.023178779,-0.03473388],"split_type":[0,0,0,0,0,0,0,0,0,0,0,0,0,0,0]},{"id":94,"split_indices":[29,0,0,27,28,10,1,0,0,0,0,0,0,0,0],"split_conditions":[0.12021543,26.8,35.4,0.08868837,0.08065853,0.5868027,72000.0,-0.032489814,-0.0033917737,-0.0023398753,0.0052380357,0.0004995285,0.03713992,-0.0,0.046428896],"left_children":[1,3,5,7,9,11,13,-1,-1,-1,-1,-1,-1,-1,-1],"right_children":[2,4,6,8,10,12,14,-1,-1,-1,-1,-1,-1,-1,-1],"default_left":[0,0,0,0,0,1,0,0,0,0,0,0,0,0,0],"base_weights":[-0.004989802,-0.011422993,0.29426777,-0.14710373,-0.0,0.13510476,0.48217565,-0.032489814,-0.0033917737,-0.0023398753,0.0052380357,0.0004995285,0.03713992,-0.0,0.046428896],"split_type":[0,0,0,0,0,0,0,0,0,0,0,0,0,0,0]},{"id":95,"split_indices":[17,26,10,0,5,10,5,0,0,0,0,0,0,0,0],"split_conditions":[1810.0,0.10954127,0.56234276,27.1,0.9248143,0.15922496,0.83442,-0.010076417,0.0013848682,0.019650185,-0.01949696,0.007206501,-0.019139413,0.005539805,-0.011031356],"left_children":[1,3,5,7,9,11,13,-1,-1,-1,-1,-1,-1,-1,-1],"right_children":[2,4,6,8,10,12,14,-1,-1,-1,-1,-1,-1,-1,-1],"default_left":[0,0,1,0,0,0,0,0,0,0,0,0,0,0,0],"base_weights":[-0.0043997196,0.011308799,-0.09901014,0.0029369032,0.18168916,-0.17795895,-0.0262077,-0.010076417,0.0013848682,0.019650185,-0.01949696,0.007206501,-0.019139413,0.005539805,-0.011031356],"split_type":[0,0,0,0,0,0,0,0,0,0,0,0,0,0,0]},{"id":96,"split_indices":[15,29,25,26,0,0,8,0,0,0,0,0,0,0,0],"split_conditions":[0.032561,0.08653842,0.053978886,0.11549793,28.0,50.3,0.8962832,-0.00075200974,0.019982869,-0.00325175,0.020389242,0.11648104,0.013047892,-0.011544077,-0.11213869],"left_children":[1,3,5,7,9,11,13,-1,-1,-1,-1,-1,-1,-1,-1],"right_children":[2,4,6,8,10,12,14,-1,-1,-1,-1,-1,-1,-1,-1],"default_left":[0,0,0,0,0,0,0,0,0,0,0,0,0,0,0],"base_weights":[-0.00026049337,0.014718777,-0.11456075,0.0006562358,0.14959852,0.29667434,-0.1406238,-0.00075200974,0.019982869,-0.00325175,0.020389242,0.11648104,0.013047892,-0.011544077,-0.11213869],"split_type":[0,0,0,0,0,0,0,0,0,0,0,0,0,0,0]},{"id":97,"split_indices":[6,9,22,24,0,1,22,0,0,0,0,0,0,0,0],"split_conditions":[0.7722667,0.11722112,1.0,0.096783146,32.1,99000.0,2.0,0.10442301,-0.0,-0.06422425,-0.017271698,-0.0050413865,0.0042968234,-0.012843898,0.0028734384],"left_children":[1,3,5,7,9,11,13,-1,-1,-1,-1,-1,-1,-1,-1],"right_children":[2,4,6,8,10,12,14,-1,-1,-1,-1,-1,-1,-1,-1],"default_left":[0,0,0,0,0,0,0,0,0,0,0,0,0,0,0],"base_weights":[0.0035782484,-0.30009472,0.009862688,0.74629265,-0.34027982,0.026350226,-0.081012584,0.10442301,-0.0,-0.06422425,-0.017271698,-0.0050413865,0.0042968234,-0.012843898,0.0028734384],"split_type":[0,0,0,0,0,0,0,0,0,0,0,0,0,0,0]},{"id":98,"split_indices":[6,14,17,30,6,8,17,0,0,0,0,0,0,0,0],"split_conditions":[4.8499713,1.0,410.0,0.08351381,2.2425714,0.5108824,1131.0,-0.01135937,-0.06182902,-0.0032869217,0.006643249,-0.0,-0.027934002,0.0060352157,-0.008694924],"left_children":[1,3,5,7,9,11,13,-1,-1,-1,-1,-1,-1,-1,-1],"right_children":[2,4,6,8,10,12,14,-1,-1,-1,-1,-1,-1,-1,-1],"default_left":[0,0,0,0,0,0,0,0,0,0,0,0,0,0,0],"base_weights":[-0.010208924,0.014012644,-0.074597105,-0.15456823,0.033458676,-0.19196923,-0.019860363,-0.01135937,-0.06182902,-0.0032869217,0.006643249,-0.0,-0.027934002,0.0060352157,-0.008694924],"split_type":[0,0,0,0,0,0,0,0,0,0,0,0,0,0,0]},{"id":99,"split_indices":[0,9,9,0,0,10,3,0,0,0,0,0,0,0,0],"split_conditions":[53.0,0.25473744,0.5313948,40.1,40.1,0.6089426,0.34514555,0.010640474,-0.00097336224,-0.010327613,0.0076404354,0.02902858,0.0753954,-0.0050033466,-0.024311544],"left_children":[1,3,5,7,9,11,13,-1,-1,-1,-1,-1,-1,-1,-1],"right_children":[2,4,6,8,10,12,14,-1,-1,-1,-1,-1,-1,-1,-1],"default_left":[0,1,0,0,0,1,0,0,0,0,0,0,0,0,0],"base_weights":[0.00742291,0.030941559,-0.073794015,0.06894423,-0.038548853,0.5067707,-0.10271367,0.010640474,-0.00097336224,-0.010327613,0.0076404354,0.02902858,0.0753954,-0.0050033466,-0.024311544],"split_type":[0,0,0,0,0,0,0,0,0,0,0,0,0,0,0]},{"id":100,"split_indices":[11,9,0,0,10,10,9,0,0,0,0,0,0,0,0],"split_conditions":[0.80274546,0.21335569,57.1,33.2,0.06679726,0.29004985,0.6362958,0.0025778615,0.03074437,0.01468912,-0.0015316891,-0.0,-0.05530431,-0.0153060565,0.08005798],"left_children":[1,3,5,7,9,11,13,-1,-1,-1,-1,-1,-1,-1,-1],"right_children":[2,4,6,8,10,12,14,-1,-1,-1,-1,-1,-1,-1,-1],"default_left":[1,0,0,0,1,0,1,0,0,0,0,0,0,0,0],"base_weights":[-0.006148865,-0.0,-0.37614685,0.1304122,-0.009553667,-0.50204045,-0.0,0.0025778615,0.03074437,0.01468912,-0.0015316891,-0.0,-0.05530431,-0.0153060565,0.08005798],"split_type":[0,0,0,0,0,0,0,0,0,0,0,0,0,0,0]},{"id":101,"split_indices":[24,24,16,0,0,24,4,0,0,0,0,0,0,0,0],"split_conditions":[0.05267272,0.049746346,3.0,54.2,33.7,0.11113804,0.11208,-0.014205229,0.061421912,-0.0050422796,-0.05881426,-0.0015547836,0.009368623,-0.0057794186,0.009786282],"left_children":[1,3,5,7,9,11,13,-1,-1,-1,-1,-1,-1,-1,-1],"right_children":[2,4,6,8,10,12,14,-1,-1,-1,-1,-1,-1,-1,-1],"default_left":[0,0,0,0,0,0,0,0,0,0,0,0,0,0,0],"base_weights":[0.0017714353,-0.22112915,0.0074329795,-0.06294348,-0.4655309,-0.007992374,0.07595709,-0.014205229,0.061421912,-0.0050422796,-0.05881426,-0.0015547836,0.009368623,-0.0057794186,0.009786282],"split_type":[0,0,0,0,0,0,0,0,0,0,0,0,0,0,0]},{"id":102,"split_indices":[11,0,24,10,9,7,15,0,0,0,0,0,0,0,0],"split_conditions":[0.80274546,65.2,0.1138213,0.105316974,0.7020302,0.748167,0.010032,0.011369271,-0.00032864275,0.05521652,-0.027702698,0.02828243,-0.03700704,0.12556553,-0.0],"left_children":[1,3,5,7,9,11,13,-1,-1,-1,-1,-1,-1,-1,-1],"right_children":[2,4,6,8,10,12,14,-1,-1,-1,-1,-1,-1,-1,-1],"default_left":[1,0,0,1,0,0,0,0,0,0,0,0,0,0,0],"base_weights":[-0.0039441953,0.0005825093,-0.2896423,0.00488154,-0.2612913,-0.3473197,0.55758035,0.011369271,-0.00032864275,0.05521652,-0.027702698,0.02828243,-0.03700704,0.12556553,-0.0],"split_type":[0,0,0,0,0,0,0,0,0,0,0,0,0,0,0]},{"id":103,"split_indices":[17,5,6,6,6,5,22,0,0,0,0,0,0,0,0],"split_conditions":[1775.0,0.7648,1.5049143,6.2985954,5.0258,0.88432,1.0,0.014089629,-0.0012985751,0.0010837323,-0.010652216,-0.089883186,-0.015277305,-0.0016315223,-0.022236373],"left_children":[1,3,5,7,9,11,13,-1,-1,-1,-1,-1,-1,-1,-1],"right_children":[2,4,6,8,10,12,14,-1,-1,-1,-1,-1,-1,-1,-1],"default_left":[0,0,0,0,0,0,0,0,0,0,0,0,0,0,0],"base_weights":[0.00012985412,0.015360709,-0.08320758,0.076223224,-0.0034310862,-0.29322082,-0.055409674,0.014089629,-0.0012985751,0.0010837323,-0.010652216,-0.089883186,-0.015277305,-0.0016315223,-0.022236373],"split_type":[0,0,0,0,0,0,0,0,0,0,0,0,0,0,0]},{"id":104,"split_indices":[10,11,17,12,26,24,24,0,0,0,0,0,0,0,0],"split_conditions":[0.76720965,0.16146308,2821.0,3.0,0.10954127,0.11315005,0.09541814,0.017622272,0.00035190277,-0.0014876601,0.01196683,-0.046188436,0.02210643,-0.021045903,0.08197581],"left_children":[1,3,5,7,9,11,13,-1,-1,-1,-1,-1,-1,-1,-1],"right_children":[2,4,6,8,10,12,14,-1,-1,-1,-1,-1,-1,-1,-1],"default_left":[1,0,0,0,0,0,0,0,0,0,0,0,0,0,0],"base_weights":[-0.0028954397,0.0015376911,-0.38160393,0.14741674,-0.009923329,-0.4551241,0.251353,0.017622272,0.00035190277,-0.0014876601,0.01196683,-0.046188436,0.02210643,-0.021045903,0.08197581],"split_type":[0,0,0,0,0,0,0,0,0,0,0,0,0,0,0]},{"id":105,"split_indices":[28,4,0,1,6,9,5,0,0,0,0,0,0,0,0],"split_conditions":[0.08182608,0.1588,25.8,144000.0,1.94704,0.21335569,0.78868,-0.016008023,-0.0027890033,-0.04637841,0.002296102,0.0002981026,-0.049059235,0.016164098,0.004935975],"left_children":[1,3,5,7,9,11,13,-1,-1,-1,-1,-1,-1,-1,-1],"right_children":[2,4,6,8,10,12,14,-1,-1,-1,-1,-1,-1,-1,-1],"default_left":[0,0,0,0,0,1,0,0,0,0,0,0,0,0,0],"base_weights":[-0.0012056418,-0.028559411,0.05883767,-0.08325366,0.0121131595,-0.1360631,0.08789598,-0.016008023,-0.0027890033,-0.04637841,0.002296102,0.0002981026,-0.049059235,0.016164098,0.004935975],"split_type":[0,0,0,0,0,0,0,0,0,0,0,0,0,0,0]},{"id":106,"split_indices":[5,10,1,9,0,17,9,0,0,0,0,0,0,0,0],"split_conditions":[0.424625,0.5868027,382500.0,0.36598727,38.5,1822.0,0.40117142,0.036607087,-0.053819995,-0.0,0.13195792,0.0009312477,-0.0077506904,0.05408965,0.011210746],"left_children":[1,3,5,7,9,11,13,-1,-1,-1,-1,-1,-1,-1,-1],"right_children":[2,4,6,8,10,12,14,-1,-1,-1,-1,-1,-1,-1,-1],"default_left":[0,1,0,1,0,0,0,0,0,0,0,0,0,0,0],"base_weights":[0.0052735247,0.56227654,0.0025662358,0.20561537,1.2211306,-0.003022451,0.2204694,0.036607087,-0.053819995,-0.0,0.13195792,0.0009312477,-0.0077506904,0.05408965,0.011210746],"split_type":[0,0,0,0,0,0,0,0,0,0,0,0,0,0,0]},{"id":107,"split_indices":[11,23,23,9,28,10,11,0,0,0,0,0,0,0,0],"split_conditions":[0.6512602,1.0,1.0,0.4818147,0.057971805,0.523034,0.8160924,-0.00040347155,-0.018431341,0.047057655,0.0037988774,0.007733768,-0.007630049,-0.0042380155,-0.02217618],"left_children":[1,3,5,7,9,11,13,-1,-1,-1,-1,-1,-1,-1,-1],"right_children":[2,4,6,8,10,12,14,-1,-1,-1,-1,-1,-1,-1,-1],"default_left":[0,0,0,1,0,0,0,0,0,0,0,0,0,0,0],"base_weights":[-0.0001047686,0.025218552,-0.042435873,-0.040805206,0.04791065,0.0116109215,-0.12050448,-0.00040347155,-0.018431341,0.047057655,0.0037988774,0.007733768,-0.007630049,-0.0042380155,-0.02217618],"split_type":[0,0,0,0,0,0,0,0,0,0,0,0,0,0,0]},{"id":108,"split_indices":[7,5,11,11,17,16,27,0,0,0,0,0,0,0,0],"split_conditions":[0.7163324,0.7632,0.7062051,0.52809274,2234.0,2.0,0.053617157,0.02771053,0.08226277,0.0143149765,-0.040881354,-0.012720504,0.002104459,-0.027021559,-0.004679473],"left_children":[1,3,5,7,9,11,13,-1,-1,-1,-1,-1,-1,-1,-1],"right_children":[2,4,6,8,10,12,14,-1,-1,-1,-1,-1,-1,-1,-1],"default_left":[0,0,0,1,0,0,0,0,0,0,0,0,0,0,0],"base_weights":[-0.0057272874,0.1960586,-0.0145035535,0.541052,0.12567809,0.010818806,-0.0701444,0.02771053,0.08226277,0.0143149765,-0.040881354,-0.012720504,0.002104459,-0.027021559,-0.004679473],"split_type":[0,0,0,0,0,0,0,0,0,0,0,0,0,0,0]},{"id":109,"split_indices":[9,26,8,1,4,9,15,0,0,0,0,0,0,0,0],"split_conditions":[0.0754091,0.10269522,0.5900296,157500.0,0.209,0.29888138,0.018029,0.020936823,0.068602555,-0.077769846,-0.0,0.018118065,0.0013085111,-0.0074794744,-1.7124361e-05],"left_children":[1,3,5,7,9,11,13,-1,-1,-1,-1,-1,-1,-1,-1],"right_children":[2,4,6,8,10,12,14,-1,-1,-1,-1,-1,-1,-1,-1],"default_left":[0,0,0,0,0,0,0,0,0,0,0,0,0,0,0],"base_weights":[-0.0034593856,0.44145912,-0.006478623,0.50827384,-0.14824161,0.031508747,-0.03565241,0.020936823,0.068602555,-0.077769846,-0.0,0.018118065,0.0013085111,-0.0074794744,-1.7124361e-05],"split_type":[0,0,0,0,0,0,0,0,0,0,0,0,0,0,0]},{"id":110,"split_indices":[0,14,4,7,11,8,1,0,0,0,0,0,0,0,0],"split_conditions":[64.9,2.0,0.120844446,0.7163324,0.344155,0.6065311,45000.0,0.01515554,0.0005220397,0.01690331,-0.041673575,0.026241204,-0.04358462,0.077728204,-0.04141709],"left_children":[1,3,5,7,9,11,13,-1,-1,-1,-1,-1,-1,-1,-1],"right_children":[2,4,6,8,10,12,14,-1,-1,-1,-1,-1,-1,-1,-1],"default_left":[0,0,0,0,0,0,0,0,0,0,0,0,0,0,0],"base_weights":[0.0025759286,0.0076935473,-0.24953575,0.01276605,-0.23183572,0.09058778,-0.41592813,0.01515554,0.0005220397,0.01690331,-0.041673575,0.026241204,-0.04358462,0.077728204,-0.04141709],"split_type":[0,0,0,0,0,0,0,0,0,0,0,0,0,0,0]},{"id":111,"split_indices":[4,6,6,4,17,0,0,0,0,0,0,0,0,0,0],"split_conditions":[0.19673334,3.76935,4.8499713,0.157,10.0,58.0,61.3,-0.0017370286,0.008069021,-0.02995085,-0.0067278724,0.014027378,-0.023505673,-0.0026257897,0.026393892],"left_children":[1,3,5,7,9,11,13,-1,-1,-1,-1,-1,-1,-1,-1],"right_children":[2,4,6,8,10,12,14,-1,-1,-1,-1,-1,-1,-1,-1],"default_left":[0,0,0,0,0,0,0,0,0,0,0,0,0,0,0],"base_weights":[0.0021315296,-0.022567593,0.04436687,0.0018911626,-0.122414805,0.11289358,-0.0009917887,-0.0017370286,0.008069021,-0.02995085,-0.0067278724,0.014027378,-0.023505673,-0.0026257897,0.026393892],"split_type":[0,0,0,0,0,0,0,0,0,0,0,0,0,0,0]},{"id":112,"split_indices":[29,28,0,25,0,26,28,0,0,0,0,0,0,0,0],"split_conditions":[0.08653842,0.08219603,29.3,0.053978886,26.8,0.10140804,0.09962956,0.009495968,-0.0048623253,-0.010237192,0.0065269507,-0.0073991776,0.015279402,0.019142041,-0.008943455],"left_children":[1,3,5,7,9,11,13,-1,-1,-1,-1,-1,-1,-1,-1],"right_children":[2,4,6,8,10,12,14,-1,-1,-1,-1,-1,-1,-1,-1],"default_left":[0,0,0,0,0,0,0,0,0,0,0,0,0,0,0],"base_weights":[-0.004534349,-0.016981592,0.112520956,-0.043110847,0.048842832,-0.017819347,0.19165707,0.009495968,-0.0048623253,-0.010237192,0.0065269507,-0.0073991776,0.015279402,0.019142041,-0.008943455],"split_type":[0,0,0,0,0,0,0,0,0,0,0,0,0,0,0]},{"id":113,"split_indices":[0,9,9,2,0,0,24,0,0,0,0,0,0,0,0],"split_conditions":[50.2,0.29888138,0.7303086,0.011747516,40.4,61.9,0.106545866,0.0340921,0.004085722,-0.013035334,0.0046310783,0.015872462,0.06701704,-0.015098272,0.013397013],"left_children":[1,3,5,7,9,11,13,-1,-1,-1,-1,-1,-1,-1,-1],"right_children":[2,4,6,8,10,12,14,-1,-1,-1,-1,-1,-1,-1,-1],"default_left":[0,1,0,0,0,0,0,0,0,0,0,0,0,0,0],"base_weights":[-0.014420999,0.012272599,-0.0838524,0.0530682,-0.07535274,0.2514974,-0.14569175,0.0340921,0.004085722,-0.013035334,0.0046310783,0.015872462,0.06701704,-0.015098272,0.013397013],"split_type":[0,0,0,0,0,0,0,0,0,0,0,0,0,0,0]},{"id":114,"split_indices":[27,8,1,11,11,5,1,0,0,0,0,0,0,0,0],"split_conditions":[0.08264028,0.5900296,103500.0,0.25670558,0.25670558,0.8461818,585000.0,-0.0058886954,0.013737435,0.00052525115,-0.018681865,-7.882149e-05,-0.018553933,0.0036248693,0.067978986],"left_children":[1,3,5,7,9,11,13,-1,-1,-1,-1,-1,-1,-1,-1],"right_children":[2,4,6,8,10,12,14,-1,-1,-1,-1,-1,-1,-1,-1],"default_left":[0,0,0,1,0,0,0,0,0,0,0,0,0,0,0],"base_weights":[0.0018386702,-0.07574799,0.02063261,0.076108076,-0.16425478,-0.05298719,0.043808866,-0.0058886954,0.013737435,0.00052525115,-0.018681865,-7.882149e-05,-0.018553933,0.0036248693,0.067978986],"split_type":[0,0,0,0,0,0,0,0,0,0,0,0,0,0,0]},{"id":115,"split_indices":[9,26,10,9,11,7,15,0,0,0,0,0,0,0,0],"split_conditions":[0.70459217,0.11596555,0.0099712955,0.14843227,0.4650692,0.89381427,0.018801,0.015548944,0.0005342095,0.001347747,0.03658595,-0.0,0.14339693,-0.027923435,-0.0024810683],"left_children":[1,3,5,7,9,11,13,-1,-1,-1,-1,-1,-1,-1,-1],"right_children":[2,4,6,8,10,12,14,-1,-1,-1,-1,-1,-1,-1,-1],"default_left":[1,0,1,0,1,0,0,0,0,0,0,0,0,0,0],"base_weights":[0.009355882,0.01735163,-0.13739474,0.011780879,0.16609068,1.1113912,-0.15470941,0.015548944,0.0005342095,0.001347747,0.03658595,-0.0,0.14339693,-0.027923435,-0.0024810683],"split_type":[0,0,0,0,0,0,0,0,0,0,0,0,0,0,0]},{"id":116,"split_indices":[6,1,7,29,9,1,7,0,0,0,0,0,0,0,0],"split_conditions":[0.7722667,405000.0,0.9154156,0.11641078,0.55733013,144000.0,1.0,-0.036653228,0.02206538,0.04940364,-0.065344036,-0.0014844753,0.007758608,-0.028605618,0.0020772968],"left_children":[1,3,5,7,9,11,13,-1,-1,-1,-1,-1,-1,-1,-1],"right_children":[2,4,6,8,10,12,14,-1,-1,-1,-1,-1,-1,-1,-1],"default_left":[0,0,0,0,1,0,0,0,0,0,0,0,0,0,0],"base_weights":[0.00505656,-0.2389989,0.010004533,-0.33588135,0.36097544,0.034560114,-0.029602181,-0.036653228,0.02206538,0.04940364,-0.065344036,-0.0014844753,0.007758608,-0.028605618,0.0020772968],"split_type":[0,0,0,0,0,0,0,0,0,0,0,0,0,0,0]},{"id":117,"split_indices":[22,4,6,6,7,17,11,0,0,0,0,0,0,0,0],"split_conditions":[1.0,0.256,3.64895,4.6722,0.91986215,1810.0,0.74079907,0.0012863937,-0.00796013,0.013078412,-0.0039262683,0.0049655493,-0.028167399,-0.010965421,-0.048237976],"left_children":[1,3,5,7,9,11,13,-1,-1,-1,-1,-1,-1,-1,-1],"right_children":[2,4,6,8,10,12,14,-1,-1,-1,-1,-1,-1,-1,-1],"default_left":[0,0,0,0,0,0,0,0,0,0,0,0,0,0,0],"base_weights":[-0.0012890567,0.011586698,-0.07403268,-0.0049603055,0.081781656,0.0074028764,-0.18864875,0.0012863937,-0.00796013,0.013078412,-0.0039262683,0.0049655493,-0.028167399,-0.010965421,-0.048237976],"split_type":[0,0,0,0,0,0,0,0,0,0,0,0,0,0,0]},{"id":118,"split_indices":[11,25,14,11,29,17,11,0,0,0,0,0,0,0,0],"split_conditions":[0.22383131,0.07461752,2.0,0.16146308,0.11775387,10.0,0.344155,0.007732094,-0.016517779,0.012164253,-0.01884656,-0.006184506,0.0015988146,0.01264356,-0.031036792],"left_children":[1,3,5,7,9,11,13,-1,-1,-1,-1,-1,-1,-1,-1],"right_children":[2,4,6,8,10,12,14,-1,-1,-1,-1,-1,-1,-1,-1],"default_left":[0,0,0,0,0,0,0,0,0,0,0,0,0,0,0],"base_weights":[0.011044637,0.09522539,-0.0006703696,-0.014708587,0.1251036,0.0036683604,-0.23575845,0.007732094,-0.016517779,0.012164253,-0.01884656,-0.006184506,0.0015988146,0.01264356,-0.031036792],"split_type":[0,0,0,0,0,0,0,0,0,0,0,0,0,0,0]},{"id":119,"split_indices":[9,10,9,0,8,11,0,0,0,0,0,0,0,0,0],"split_conditions":[0.0754091,0.6398441,0.816289,29.6,0.58916914,0.56737924,61.0,0.0002298238,0.043524146,-0.0,0.10052187,0.0025519158,-0.0022990955,-0.038628165,0.018903473],"left_children":[1,3,5,7,9,11,13,-1,-1,-1,-1,-1,-1,-1,-1],"right_children":[2,4,6,8,10,12,14,-1,-1,-1,-1,-1,-1,-1,-1],"default_left":[0,0,1,0,0,0,0,0,0,0,0,0,0,0,0],"base_weights":[0.0017284107,0.40370482,-0.0008318545,0.27619815,0.9755644,0.0027180065,-0.2648784,0.0002298238,0.043524146,-0.0,0.10052187,0.0025519158,-0.0022990955,-0.038628165,0.018903473],"split_type":[0,0,0,0,0,0,0,0,0,0,0,0,0,0,0]},{"id":120,"split_indices":[3,1,7,17,17,9,22,0,0,0,0,0,0,0,0],"split_conditions":[0.25773585,56250.0,0.75941867,576.0,10.0,0.60924596,1.0,0.11175194,-0.0,-0.00549804,0.016976958,-0.0038390032,0.012613187,-0.00025414076,-0.0075075515],"left_children":[1,3,5,7,9,11,13,-1,-1,-1,-1,-1,-1,-1,-1],"right_children":[2,4,6,8,10,12,14,-1,-1,-1,-1,-1,-1,-1,-1],"default_left":[0,0,0,0,0,0,0,0,0,0,0,0,0,0,0],"base_weights":[0.0016818403,0.1657597,-0.0039942306,0.83672446,0.13991392,0.08353618,-0.015669338,0.11175194,-0.0,-0.00549804,0.016976958,-0.0038390032,0.012613187,-0.00025414076,-0.0075075515],"split_type":[0,0,0,0,0,0,0,0,0,0,0,0,0,0,0]},{"id":121,"split_indices":[17,27,1,1,0,24,5,0,0,0,0,0,0,0,0],"split_conditions":[1568.0,0.08868837,175500.0,67500.0,42.2,0.1138213,0.6783,0.041759454,-0.004745337,0.008345325,-0.00094820344,-0.012376568,0.031224076,-0.08582641,0.004079107],"left_children":[1,3,5,7,9,11,13,-1,-1,-1,-1,-1,-1,-1,-1],"right_children":[2,4,6,8,10,12,14,-1,-1,-1,-1,-1,-1,-1,-1],"default_left":[0,0,0,0,0,0,0,0,0,0,0,0,0,0,0],"base_weights":[0.005629768,0.02279261,-0.056818765,-0.046120528,0.04363115,-0.11985399,0.03556977,0.041759454,-0.004745337,0.008345325,-0.00094820344,-0.012376568,0.031224076,-0.08582641,0.004079107],"split_type":[0,0,0,0,0,0,0,0,0,0,0,0,0,0,0]},{"id":122,"split_indices":[4,6,6,1,25,0,14,0,0,0,0,0,0,0,0],"split_conditions":[0.2248,4.641,6.2985954,99000.0,0.058388144,49.3,1.0,-0.009415495,0.001498468,0.0029203463,-0.013854673,0.015402762,-0.004983101,0.07700581,-0.0034431668],"left_children":[1,3,5,7,9,11,13,-1,-1,-1,-1,-1,-1,-1,-1],"right_children":[2,4,6,8,10,12,14,-1,-1,-1,-1,-1,-1,-1,-1],"default_left":[0,0,0,0,0,0,0,0,0,0,0,0,0,0,0],"base_weights":[0.0014281785,-0.017240193,0.051063,-0.000231256,-0.11423915,0.111464456,-0.018069021,-0.009415495,0.001498468,0.0029203463,-0.013854673,0.015402762,-0.004983101,0.07700581,-0.0034431668],"split_type":[0,0,0,0,0,0,0,0,0,0,0,0,0,0,0]},{"id":123,"split_indices":[8,1,11,17,14,24,25,0,0,0,0,0,0,0,0],"split_conditions":[0.7735365,139500.0,0.24318647,1067.0,1.0,0.062179428,0.09599773,0.0019607206,-0.010472027,-0.01517306,0.004891936,0.03787133,-0.0013638702,-0.027734281,-0.0016593601],"left_children":[1,3,5,7,9,11,13,-1,-1,-1,-1,-1,-1,-1,-1],"right_children":[2,4,6,8,10,12,14,-1,-1,-1,-1,-1,-1,-1,-1],"default_left":[0,0,1,0,0,0,0,0,0,0,0,0,0,0,0],"base_weights":[-0.0021652917,0.008313553,-0.1138782,-0.023296127,0.041785147,0.03515938,-0.19928907,0.0019607206,-0.010472027,-0.01517306,0.004891936,0.03787133,-0.0013638702,-0.027734281,-0.0016593601],"split_type":[0,0,0,0,0,0,0,0,0,0,0,0,0,0,0]},{"id":124,"split_indices":[10,8,23,26,0,3,28,0,0,0,0,0,0,0,0],"split_conditions":[0.775478,0.7735365,3.0,0.12190325,35.4,0.25940138,0.08182608,0.001803097,0.035233967,-0.00032603188,-0.018465906,0.020161405,-0.057720374,-0.048208687,0.07498843],"left_children":[1,3,5,7,9,11,13,-1,-1,-1,-1,-1,-1,-1,-1],"right_children":[2,4,6,8,10,12,14,-1,-1,-1,-1,-1,-1,-1,-1],"default_left":[1,0,0,0,0,0,0,0,0,0,0,0,0,0,0],"base_weights":[0.009168157,0.012777925,-0.4429297,0.023704153,-0.10312781,-0.57587713,-0.00017501203,0.001803097,0.035233967,-0.00032603188,-0.018465906,0.020161405,-0.057720374,-0.048208687,0.07498843],"split_type":[0,0,0,0,0,0,0,0,0,0,0,0,0,0,0]},{"id":125,"split_indices":[10,17,0,10,15,0,29,0,0,0,0,0,0,0,0],"split_conditions":[0.06679726,214.0,26.6,0.0099712955,0.025164,23.7,0.08299568,0.029403865,-0.0068467185,0.029550552,-0.0028059885,0.002720263,-0.018720133,-0.00021047691,0.010586074],"left_children":[1,3,5,7,9,11,13,-1,-1,-1,-1,-1,-1,-1,-1],"right_children":[2,4,6,8,10,12,14,-1,-1,-1,-1,-1,-1,-1,-1],"default_left":[0,0,0,0,0,0,0,0,0,0,0,0,0,0,0],"base_weights":[0.008078566,0.17573391,0.0008670311,-0.0,0.2717507,-0.11468613,0.010144654,0.029403865,-0.0068467185,0.029550552,-0.0028059885,0.002720263,-0.018720133,-0.00021047691,0.010586074],"split_type":[0,0,0,0,0,0,0,0,0,0,0,0,0,0,0]},{"id":126,"split_indices":[0,0,9,6,11,6,1,0,0,0,0,0,0,0,0],"split_conditions":[65.2,64.7,0.82796836,3.62,0.2881296,3.7128,146250.0,0.0021747209,-0.002727288,-0.0040206783,0.05824105,-0.0,0.14323367,-0.04174284,0.005744034],"left_children":[1,3,5,7,9,11,13,-1,-1,-1,-1,-1,-1,-1,-1],"right_children":[2,4,6,8,10,12,14,-1,-1,-1,-1,-1,-1,-1,-1],"default_left":[0,0,0,0,1,0,0,0,0,0,0,0,0,0,0],"base_weights":[-0.0002577125,0.0030717945,-0.2169955,-0.0,0.4273279,0.5945931,-0.32170287,0.0021747209,-0.002727288,-0.0040206783,0.05824105,-0.0,0.14323367,-0.04174284,0.005744034],"split_type":[0,0,0,0,0,0,0,0,0,0,0,0,0,0,0]},{"id":127,"split_indices":[10,0,22,9,9,9,15,0,0,0,0,0,0,0,0],"split_conditions":[0.71095186,26.8,2.0,0.10008582,0.27710932,0.31371522,0.030755,0.0048260293,-0.025330588,0.010743595,0.00059139734,0.010887402,-0.016482081,0.058467317,-0.024225151],"left_children":[1,3,5,7,9,11,13,-1,-1,-1,-1,-1,-1,-1,-1],"right_children":[2,4,6,8,10,12,14,-1,-1,-1,-1,-1,-1,-1,-1],"default_left":[0,0,0,1,0,0,0,0,0,0,0,0,0,0,0],"base_weights":[-0.002658172,0.00747826,-0.13074934,-0.10241037,0.017538285,-0.15696135,0.26524028,0.0048260293,-0.025330588,0.010743595,0.00059139734,0.010887402,-0.016482081,0.058467317,-0.024225151],"split_type":[0,0,0,0,0,0,0,0,0,0,0,0,0,0,0]},{"id":128,"split_indices":[1,4,4,11,6,10,6,0,0,0,0,0,0,0,0],"split_conditions":[76500.0,0.34270588,0.16791429,0.41359675,5.0646152,0.46322155,4.1955,7.72329e-05,-0.02595156,-0.031036833,0.017520146,0.0032207048,-0.0069925957,0.012943652,-0.0014439145],"left_children":[1,3,5,7,9,11,13,-1,-1,-1,-1,-1,-1,-1,-1],"right_children":[2,4,6,8,10,12,14,-1,-1,-1,-1,-1,-1,-1,-1],"default_left":[0,0,0,0,0,0,0,0,0,0,0,0,0,0,0],"base_weights":[-0.003334452,-0.1160577,0.006052816,-0.21829121,0.13798034,-0.03038075,0.046628483,7.72329e-05,-0.02595156,-0.031036833,0.017520146,0.0032207048,-0.0069925957,0.012943652,-0.0014439145],"split_type":[0,0,0,0,0,0,0,0,0,0,0,0,0,0,0]},{"id":129,"split_indices":[5,10,7,24,7,4,15,0,0,0,0,0,0,0,0],"split_conditions":[0.424625,0.5868027,0.70304066,0.06474221,0.86326206,0.1473091,0.014464,0.053795252,-0.0,-0.0,0.12516227,0.0010687473,0.027420025,-0.0036571291,0.001987196],"left_children":[1,3,5,7,9,11,13,-1,-1,-1,-1,-1,-1,-1,-1],"right_children":[2,4,6,8,10,12,14,-1,-1,-1,-1,-1,-1,-1,-1],"default_left":[0,0,0,0,0,0,0,0,0,0,0,0,0,0,0],"base_weights":[0.008924127,0.48702952,0.0066248905,0.105930634,1.0931216,0.1621575,1.55772e-05,0.053795252,-0.0,-0.0,0.12516227,0.0010687473,0.027420025,-0.0036571291,0.001987196],"split_type":[0,0,0,0,0,0,0,0,0,0,0,0,0,0,0]},{"id":130,"split_indices":[4,1,6,11,6,7,0,0,0,0,0,0,0,0,0],"split_conditions":[0.256,76500.0,6.7076,0.70769936,5.2672,0.91986215,60.2,-0.009328232,-0.0734329,0.00015088133,-0.00848579,0.020945648,-0.0015645497,-0.0066375565,0.029509366],"left_children":[1,3,5,7,9,11,13,-1,-1,-1,-1,-1,-1,-1,-1],"right_children":[2,4,6,8,10,12,14,-1,-1,-1,-1,-1,-1,-1,-1],"default_left":[0,0,0,1,0,0,0,0,0,0,0,0,0,0,0],"base_weights":[-0.004951027,-0.019597504,0.057079185,-0.17938645,-0.010893164,0.13077943,-0.01844956,-0.009328232,-0.0734329,0.00015088133,-0.00848579,0.020945648,-0.0015645497,-0.0066375565,0.029509366],"split_type":[0,0,0,0,0,0,0,0,0,0,0,0,0,0,0]},{"id":131,"split_indices":[28,29,12,0,7,9,0,0,0,0,0,0,0,0,0],"split_conditions":[0.08065853,0.08299568,4.0,36.2,0.7952919,0.18959308,44.0,0.0021444277,-0.004662742,0.02934249,0.005530738,0.0065455358,-0.003220872,0.021265673,0.083568424],"left_children":[1,3,5,7,9,11,13,-1,-1,-1,-1,-1,-1,-1,-1],"right_children":[2,4,6,8,10,12,14,-1,-1,-1,-1,-1,-1,-1,-1],"default_left":[0,0,0,0,0,1,0,0,0,0,0,0,0,0,0],"base_weights":[0.00443722,-0.016226219,0.045465536,-0.029592669,0.114305876,0.034990553,0.33982387,0.0021444277,-0.004662742,0.02934249,0.005530738,0.0065455358,-0.003220872,0.021265673,0.083568424],"split_type":[0,0,0,0,0,0,0,0,0,0,0,0,0,0,0]},{"id":132,"split_indices":[8,1,24,11,7,4,30,0,0,0,0,0,0,0,0],"split_conditions":[0.5824813,117000.0,0.1690251,0.8160924,0.87321055,0.256,0.082775906,-0.0,-0.05007208,0.012578501,0.002465634,-0.003272788,0.0074311774,-0.055057153,0.039857063],"left_children":[1,3,5,7,9,11,13,-1,-1,-1,-1,-1,-1,-1,-1],"right_children":[2,4,6,8,10,12,14,-1,-1,-1,-1,-1,-1,-1,-1],"default_left":[0,0,0,1,0,0,0,0,0,0,0,0,0,0,0],"base_weights":[-0.0,0.038695607,-0.025176862,-0.008403904,0.08116301,-0.028454764,0.35436141,-0.0,-0.05007208,0.012578501,0.002465634,-0.003272788,0.0074311774,-0.055057153,0.039857063],"split_type":[0,0,0,0,0,0,0,0,0,0,0,0,0,0,0]},{"id":133,"split_indices":[15,17,2,12,11,17,6,0,0,0,0,0,0,0,0],"split_conditions":[0.032561,2963.0,0.08117674,8.0,0.13510601,492.0,9.7342,0.0011205835,0.15049985,0.0073153097,-0.040958516,-0.009725886,0.014697468,-0.011338453,-0.092391506],"left_children":[1,3,5,7,9,11,13,-1,-1,-1,-1,-1,-1,-1,-1],"right_children":[2,4,6,8,10,12,14,-1,-1,-1,-1,-1,-1,-1,-1],"default_left":[0,0,0,0,1,0,0,0,0,0,0,0,0,0,0],"base_weights":[-0.00041255745,0.010099606,-0.08082767,0.013469791,-0.30160046,0.049537897,-0.14821461,0.0011205835,0.15049985,0.0073153097,-0.040958516,-0.009725886,0.014697468,-0.011338453,-0.092391506],"split_type":[0,0,0,0,0,0,0,0,0,0,0,0,0,0,0]},{"id":134,"split_indices":[12,8,0,1,0,0,0,0,0],"split_conditions":[8.0,0.8384836,0.1340799,382500.0,30.4,0.0013133871,0.016555903,0.0074289213,-0.02084298],"left_children":[1,3,-1,5,7,-1,-1,-1,-1],"right_children":[2,4,-1,6,8,-1,-1,-1,-1],"default_left":[0,0,0,0,0,0,0,0,0],"base_weights":[0.014622523,0.013891293,0.1340799,0.019191269,-0.12841234,0.0013133871,0.016555903,0.0074289213,-0.02084298],"split_type":[0,0,0,0,0,0,0,0,0]},{"id":135,"split_indices":[28,15,7,1,11,1,12,0,0,0,0,0,0,0,0],"split_conditions":[0.057971805,0.01452,0.7594211,225000.0,0.32489124,139500.0,6.0,-0.022130385,0.07485348,-0.0,0.06888977,0.0002853136,0.014868918,-0.00073241844,0.053035326],"left_children":[1,3,5,7,9,11,13,-1,-1,-1,-1,-1,-1,-1,-1],"right_children":[2,4,6,8,10,12,14,-1,-1,-1,-1,-1,-1,-1,-1],"default_left":[0,0,0,0,1,0,0,0,0,0,0,0,0,0,0],"base_weights":[0.0068024136,0.31131852,0.0036933192,-0.014647172,0.5152267,0.08125286,-0.006839904,-0.022130385,0.07485348,-0.0,0.06888977,0.0002853136,0.014868918,-0.00073241844,0.053035326],"split_type":[0,0,0,0,0,0,0,0,0,0,0,0,0,0,0]},{"id":136,"split_indices":[10,6,3,11,17,17,23,0,0,0,0,0,0,0,0],"split_conditions":[0.023208275,5.2672,0.25773585,0.45074728,864.0,96.0,7.0,0.0070825564,0.040072374,0.007069276,-0.07501595,-0.010565193,0.017954407,-0.0014950937,0.012710399],"left_children":[1,3,5,7,9,11,13,-1,-1,-1,-1,-1,-1,-1,-1],"right_children":[2,4,6,8,10,12,14,-1,-1,-1,-1,-1,-1,-1,-1],"default_left":[0,0,0,0,0,0,0,0,0,0,0,0,0,0,0],"base_weights":[-0.003847539,0.2412273,-0.0075374595,0.3089535,-0.01927071,0.13251929,-0.012683109,0.0070825564,0.040072374,0.007069276,-0.07501595,-0.010565193,0.017954407,-0.0014950937,0.012710399],"split_type":[0,0,0,0,0,0,0,0,0,0,0,0,0,0,0]},{"id":137,"split_indices":[22,28,11,11,7,2,7,0,0,0,0,0,0,0,0],"split_conditions":[1.0,0.057971805,0.6528965,0.32489124,0.9154156,0.33040276,0.91986215,-0.028996343,0.036748316,0.0026337642,-0.0020784556,0.00155257,-0.012129453,-0.009470593,-0.032557737],"left_children":[1,3,5,7,9,11,13,-1,-1,-1,-1,-1,-1,-1,-1],"right_children":[2,4,6,8,10,12,14,-1,-1,-1,-1,-1,-1,-1,-1],"default_left":[0,0,0,0,0,0,0,0,0,0,0,0,0,0,0],"base_weights":[-0.0,0.012145891,-0.06801655,0.30465034,0.009097263,-0.024560282,-0.20432107,-0.028996343,0.036748316,0.0026337642,-0.0020784556,0.00155257,-0.012129453,-0.009470593,-0.032557737],"split_type":[0,0,0,0,0,0,0,0,0,0,0,0,0,0,0]},{"id":138,"split_indices":[7,15,26,7,27,6,6,0,0,0,0,0,0,0,0],"split_conditions":[0.7163324,0.04622,0.12190325,0.70303714,0.08288508,1.0,2.6915555,0.002607425,0.025249107,-0.0,-0.06761213,-0.013071226,-0.00030456256,0.050331984,0.004276737],"left_children":[1,3,5,7,9,11,13,-1,-1,-1,-1,-1,-1,-1,-1],"right_children":[2,4,6,8,10,12,14,-1,-1,-1,-1,-1,-1,-1,-1],"default_left":[0,0,0,0,0,0,0,0,0,0,0,0,0,0,0],"base_weights":[-0.00012359285,0.15263703,-0.0068164156,0.18143621,-0.4617187,-0.009690035,0.34565037,0.002607425,0.025249107,-0.0,-0.06761213,-0.013071226,-0.00030456256,0.050331984,0.004276737],"split_type":[0,0,0,0,0,0,0,0,0,0,0,0,0,0,0]},{"id":139,"split_indices":[16,9,17,10,1,23,17,0,0,0,0,0,0,0,0],"split_conditions":[3.0,0.42324653,96.0,0.72503424,180000.0,3.0,245.0,0.0011495443,-0.0131448945,-0.012960815,0.0011532718,-0.013738275,0.017358648,0.030124947,0.005877825],"left_children":[1,3,5,7,9,11,13,-1,-1,-1,-1,-1,-1,-1,-1],"right_children":[2,4,6,8,10,12,14,-1,-1,-1,-1,-1,-1,-1,-1],"default_left":[0,1,0,0,0,0,0,0,0,0,0,0,0,0,0],"base_weights":[0.0006763744,-0.012714817,0.05972839,0.0035942819,-0.07715933,-0.08166887,0.08927862,0.0011495443,-0.0131448945,-0.012960815,0.0011532718,-0.013738275,0.017358648,0.030124947,0.005877825],"split_type":[0,0,0,0,0,0,0,0,0,0,0,0,0,0,0]},{"id":140,"split_indices":[12,8,15,0,21,17,3,0,0,0,0,0,0,0,0],"split_conditions":[2.0,0.42768848,0.04622,58.4,5.0,1315.0,0.3349314,-0.0,0.08140953,0.003830134,-0.10033731,0.0008300317,-0.0061028325,0.00042986713,-0.029919479],"left_children":[1,3,5,7,9,11,13,-1,-1,-1,-1,-1,-1,-1,-1],"right_children":[2,4,6,8,10,12,14,-1,-1,-1,-1,-1,-1,-1,-1],"default_left":[0,0,0,0,0,0,0,0,0,0,0,0,0,0,0],"base_weights":[-0.0063944985,0.048862007,-0.02266829,0.6418085,0.03839815,-0.013590765,-0.196321,-0.0,0.08140953,0.003830134,-0.10033731,0.0008300317,-0.0061028325,0.00042986713,-0.029919479],"split_type":[0,0,0,0,0,0,0,0,0,0,0,0,0,0,0]},{"id":141,"split_indices":[11,0,29,10,10,9,0,0,0,0,0,0,0,0,0],"split_conditions":[0.09322509,60.4,0.08299568,0.7268094,0.086406425,0.14843227,36.4,0.015924938,0.06919768,0.035937246,-0.0766909,0.012429234,-0.0018978264,3.859313e-06,0.014320173],"left_children":[1,3,5,7,9,11,13,-1,-1,-1,-1,-1,-1,-1,-1],"right_children":[2,4,6,8,10,12,14,-1,-1,-1,-1,-1,-1,-1,-1],"default_left":[0,0,0,0,0,0,0,0,0,0,0,0,0,0,0],"base_weights":[-0.0014172015,0.19018866,-0.006926711,0.21939169,-0.41058823,-0.017021755,0.068557836,0.015924938,0.06919768,0.035937246,-0.0766909,0.012429234,-0.0018978264,3.859313e-06,0.014320173],"split_type":[0,0,0,0,0,0,0,0,0,0,0,0,0,0,0]},{"id":142,"split_indices":[24,11,11,26,0,11,0,0,0,0,0,0,0,0,0],"split_conditions":[0.16753986,0.80274546,0.62630427,0.05340486,59.3,0.5585066,37.7,-0.014576038,-7.639973e-05,-0.03287222,0.018618876,0.017332127,-0.051111266,0.0046890657,0.09213248],"left_children":[1,3,5,7,9,11,13,-1,-1,-1,-1,-1,-1,-1,-1],"right_children":[2,4,6,8,10,12,14,-1,-1,-1,-1,-1,-1,-1,-1],"default_left":[0,1,1,0,0,1,0,0,0,0,0,0,0,0,0],"base_weights":[-0.0062066517,-0.009508718,0.282811,-0.005708301,-0.24260403,0.13780214,0.77160054,-0.014576038,-7.639973e-05,-0.03287222,0.018618876,0.017332127,-0.051111266,0.0046890657,0.09213248],"split_type":[0,0,0,0,0,0,0,0,0,0,0,0,0,0,0]},{"id":143,"split_indices":[11,16,1,3,15,6,27,0,0,0,0,0,0,0,0],"split_conditions":[0.7062051,2.0,139500.0,0.26112056,0.018029,1.198,0.053259626,0.045919992,-0.011649098,-0.00067545095,0.0055527296,-0.050024033,-0.006073767,-0.0492075,0.004645086],"left_children":[1,3,5,7,9,11,13,-1,-1,-1,-1,-1,-1,-1,-1],"right_children":[2,4,6,8,10,12,14,-1,-1,-1,-1,-1,-1,-1,-1],"default_left":[0,0,0,0,0,0,0,0,0,0,0,0,0,0,0],"base_weights":[0.0028926935,0.021744786,-0.03772953,-0.100410774,0.031872336,-0.08760381,0.026894499,0.045919992,-0.011649098,-0.00067545095,0.0055527296,-0.050024033,-0.006073767,-0.0492075,0.004645086],"split_type":[0,0,0,0,0,0,0,0,0,0,0,0,0,0,0]},{"id":144,"split_indices":[27,2,0,3,1,6,4,0,0,0,0,0,0,0,0],"split_conditions":[0.08868837,0.63359225,41.9,0.37320593,202500.0,11.0115385,0.06875,7.9509555e-05,-0.013506309,0.02674349,-0.014033612,0.0058662007,-0.027493596,0.019031849,-0.0010536592],"left_children":[1,3,5,7,9,11,13,-1,-1,-1,-1,-1,-1,-1,-1],"right_children":[2,4,6,8,10,12,14,-1,-1,-1,-1,-1,-1,-1,-1],"default_left":[0,0,0,0,0,0,0,0,0,0,0,0,0,0,0],"base_weights":[0.011931233,-0.047524676,0.029684976,-0.07119836,0.13737617,0.060919546,-0.0,7.9509555e-05,-0.013506309,0.02674349,-0.014033612,0.0058662007,-0.027493596,0.019031849,-0.0010536592],"split_type":[0,0,0,0,0,0,0,0,0,0,0,0,0,0,0]},{"id":145,"split_indices":[14,6,30,8,28,6,24,0,0,0,0,0,0,0,0],"split_conditions":[2.0,2.25998,0.082775906,0.5525,0.057971805,2.11088,0.06285877,-0.041906666,-0.0023502081,0.031077908,0.0013583248,0.06326871,-0.0,0.009392741,-0.034181654],"left_children":[1,3,5,7,9,11,13,-1,-1,-1,-1,-1,-1,-1,-1],"right_children":[2,4,6,8,10,12,14,-1,-1,-1,-1,-1,-1,-1,-1],"default_left":[0,0,0,0,0,0,0,0,0,0,0,0,0,0,0],"base_weights":[-0.002420045,0.0014570445,-0.20716046,-0.04223998,0.019126242,0.5047262,-0.27336973,-0.041906666,-0.0023502081,0.031077908,0.0013583248,0.06326871,-0.0,0.009392741,-0.034181654],"split_type":[0,0,0,0,0,0,0,0,0,0,0,0,0,0,0]},{"id":146,"split_indices":[5,26,1,6,3,2,2,0,0,0,0,0,0,0,0],"split_conditions":[0.424625,